{"learner":{"attributes":{"scikit_learn":"{\"_estimator_type\": \"classifier\"}"},"feature_names":["site","date","pointID","time","region","block","depth","depth_m","dhw","mean_dhw","max_dhw","lat","lon","date_time_site_visited","notes","num_mc_s2n_dc","num_mc_s2n_mrs","num_mc_e2w_dc","num_mc_e2w_mrs","coral_length_cm_mean","coral_length_cm_std","coral_width_cm_mean","coral_width_cm_std","coral_health_initial_mean","coral_health_t1_mean","coral_health_t2_mean","g_day1_mean","g_day1_max","g_day2_mean","g_day2_max","g_day3_mean","g_day3_max","g_day4_mean","g_day4_max","g_day5_mean","g_day5_max","g_day6_mean","g_day6_max","g_day7_mean","g_day7_max","dhw_range","avg_sedimentation","max_sedimentation","sedimentation_variability","avg_coral_health","coral_area_estimate","coral_aspect_ratio","distance_from_center","depth_thermal_interaction","depth_sedimentation_interaction","depth_category","thermal_stress_level"],"feature_types":["float","float","float","float","float","float","float","float","float","float","float","float","float","float","float","float","float","float","float","float","float","float","float","float","float","float","float","float","float","float","float","float","float","float","float","float","float","float","float","float","float","float","float","float","float","float","float","float","float","float","c","c"],"gradient_booster":{"model":{"gbtree_model_param":{"num_parallel_tree":"1","num_trees":"100"},"iteration_indptr":[0,1,2,3,4,5,6,7,8,9,10,11,12,13,14,15,16,17,18,19,20,21,22,23,24,25,26,27,28,29,30,31,32,33,34,35,36,37,38,39,40,41,42,43,44,45,46,47,48,49,50,51,52,53,54,55,56,57,58,59,60,61,62,63,64,65,66,67,68,69,70,71,72,73,74,75,76,77,78,79,80,81,82,83,84,85,86,87,88,89,90,91,92,93,94,95,96,97,98,99,100],"tree_info":[0,0,0,0,0,0,0,0,0,0,0,0,0,0,0,0,0,0,0,0,0,0,0,0,0,0,0,0,0,0,0,0,0,0,0,0,0,0,0,0,0,0,0,0,0,0,0,0,0,0,0,0,0,0,0,0,0,0,0,0,0,0,0,0,0,0,0,0,0,0,0,0,0,0,0,0,0,0,0,0,0,0,0,0,0,0,0,0,0,0,0,0,0,0,0,0,0,0,0,0],"trees":[{"base_weights":[1.11571755E-2,-6.035649E-1,3.8708624E-1,4.396649E-3,-8.4731805E-1,2.6889244E-1,3.0734527E0,-1.2599654E-1,2.3059008E0,-1.6974296E-1,-1.0062655E0,6.936077E-1,-1.3359854E-1,2.0517876E0,3.4704113E0,-1.9408254E-1,2.7872913E0,3.0463755E-1,1.4824317E0,3.6559665E-1,-5.597717E-1,-5.113396E-1,-1.0299181E0,3.5229376E-1,1.3179904E0,-2.3286165E-1,7.667204E-1,2.5577595E0,-1.2048581E-1,2.923789E-1,3.9109415E-1,-3.6302626E-1,5.1831E-1,3.651589E0,-3.3330407E-2,9.6677476E-1,2.9740292E-1,1.4991343E0,-2.1046059E-1,-8.077653E-1,-8.1555106E-2,2.0992877E-2,-5.640034E-1,-1.0504537E0,-4.4202897E-1,-1.7952742E-1,6.17563E-1,2.022212E0,7.537442E-1,-4.679321E-2,-6.989729E-1,1.3347806E0,-1.1677518E-1,2.9016948E-1,1.5518701E0,1.0018586E-1,-7.060717E-2,-6.0454365E-2,-1.2404843E-2,8.643223E-2,-5.237977E-4,4.0517065E-1,1.1534772E-1,1.2269797E-1,-7.099479E-3,-8.788344E-2,1.8403599E-1,-9.2297E-2,1.0263825E-2,-6.027425E-2,-9.21462E-2,-9.189724E-2,1.5360001E-2,-6.252707E-2,-3.0792138E-2,-1.1178084E-1,-9.2501216E-2,-6.313103E-2,-1.4788109E-2,-6.600231E-2,8.250244E-3,1.0235675E-1,3.12553E-2,5.749272E-2,2.4605706E-1,1.6088117E-2,1.7989577E-1,2.206477E-2,-5.4022998E-2,-6.0117867E-2,-1.19267225E-1,2.8222933E-2,1.8207233E-1,6.726952E-3,1.924039E-1],"categories":[],"categories_nodes":[],"categories_segments":[],"categories_sizes":[],"default_left":[0,0,0,0,0,0,0,0,0,0,0,0,0,0,0,0,0,0,0,0,0,0,0,0,0,0,0,0,0,0,0,0,0,0,0,0,0,0,0,0,0,0,0,0,0,0,0,0,0,0,0,0,0,0,0,0,0,0,0,0,0,0,0,0,0,0,0,0,0,0,0,0,0,0,0,0,0,0,0,0,0,0,0,0,0,0,0,0,0,0,0,0,0,0,0],"id":0,"left_children":[1,3,5,7,9,11,13,15,17,19,21,23,25,27,29,31,33,-1,35,37,39,41,43,45,47,49,51,53,55,-1,-1,57,59,61,-1,63,-1,65,67,69,71,-1,73,75,77,79,81,83,85,87,89,91,-1,-1,93,-1,-1,-1,-1,-1,-1,-1,-1,-1,-1,-1,-1,-1,-1,-1,-1,-1,-1,-1,-1,-1,-1,-1,-1,-1,-1,-1,-1,-1,-1,-1,-1,-1,-1,-1,-1,-1,-1,-1,-1],"loss_changes":[7.0657544E2,1.7194803E2,6.0157745E2,1.002407E2,8.902759E1,3.1093774E2,2.5267883E1,6.324984E1,6.404442E0,3.331436E1,7.3242188E0,1.881247E2,8.3690414E1,2.7558487E1,2.0667114E0,3.7481262E1,2.086554E1,0E0,5.1450806E0,4.4353344E1,1.0860481E1,1.3557339E0,7.2510376E0,8.102213E1,1.2261139E2,7.303067E1,1.03788864E2,2.469513E0,4.4134345E0,0E0,0E0,1.4415039E1,1.0839228E1,1.1123123E0,0E0,2.5795965E0,0E0,2.015657E1,1.0265959E1,8.5621643E-1,6.5558147E0,0E0,2.8801918E-1,4.177185E0,1.2037225E0,2.4183231E1,4.7094986E1,8.637225E1,1.08173416E2,7.971524E1,1.0883835E1,3.6506638E1,0E0,0E0,3.8956776E0,0E0,0E0,0E0,0E0,0E0,0E0,0E0,0E0,0E0,0E0,0E0,0E0,0E0,0E0,0E0,0E0,0E0,0E0,0E0,0E0,0E0,0E0,0E0,0E0,0E0,0E0,0E0,0E0,0E0,0E0,0E0,0E0,0E0,0E0,0E0,0E0,0E0,0E0,0E0,0E0],"parents":[2147483647,0,0,1,1,2,2,3,3,4,4,5,5,6,6,7,7,8,8,9,9,10,10,11,11,12,12,13,13,14,14,15,15,16,16,18,18,19,19,20,20,21,21,22,22,23,23,24,24,25,25,26,26,27,27,28,28,31,31,32,32,33,33,35,35,37,37,38,38,39,39,40,40,42,42,43,43,44,44,45,45,46,46,47,47,48,48,49,49,50,50,51,51,54,54],"right_children":[2,4,6,8,10,12,14,16,18,20,22,24,26,28,30,32,34,-1,36,38,40,42,44,46,48,50,52,54,56,-1,-1,58,60,62,-1,64,-1,66,68,70,72,-1,74,76,78,80,82,84,86,88,90,92,-1,-1,94,-1,-1,-1,-1,-1,-1,-1,-1,-1,-1,-1,-1,-1,-1,-1,-1,-1,-1,-1,-1,-1,-1,-1,-1,-1,-1,-1,-1,-1,-1,-1,-1,-1,-1,-1,-1,-1,-1,-1,-1],"split_conditions":[-4.6318084E-1,-4.1590855E-1,1.5587159E0,2.4324055E0,-2.5988063E-1,-2.7358696E-1,-1.0630707E0,-4.506187E-1,6.100797E-1,7.2468054E-1,-8.7067366E-1,-4.7125465E-1,1.2133137E0,-1.178619E0,-1.208709E-1,-6.508478E-1,-1.8233865E-1,3.0463755E-1,-4.889826E-1,-8.118108E-1,5.193805E-1,-2.8026482E-1,1.4896911E0,-1.1883395E0,-7.2159183E-1,2.8078443E-1,1.3410304E0,-1.3873367E0,6.0333E-1,2.923789E-1,3.9109415E-1,6.100797E-1,-5.764133E-1,5.573577E-1,-3.3330407E-2,-7.671207E-1,2.9740292E-1,6.100797E-1,-2.9250473E-1,3.8379565E-1,9.42397E-2,2.0992877E-2,1.2524635E0,6.100797E-1,6.8750966E-1,-5.933125E-1,-7.2159183E-1,-4.7573793E-1,2.4358554E-1,-3.8896248E-1,6.8254775E-1,-8.5182154E-1,-1.1677518E-1,2.9016948E-1,-1.347146E0,1.0018586E-1,-7.060717E-2,-6.0454365E-2,-1.2404843E-2,8.643223E-2,-5.237977E-4,4.0517065E-1,1.1534772E-1,1.2269797E-1,-7.099479E-3,-8.788344E-2,1.8403599E-1,-9.2297E-2,1.0263825E-2,-6.027425E-2,-9.21462E-2,-9.189724E-2,1.5360001E-2,-6.252707E-2,-3.0792138E-2,-1.1178084E-1,-9.2501216E-2,-6.313103E-2,-1.4788109E-2,-6.600231E-2,8.250244E-3,1.0235675E-1,3.12553E-2,5.749272E-2,2.4605706E-1,1.6088117E-2,1.7989577E-1,2.206477E-2,-5.4022998E-2,-6.0117867E-2,-1.19267225E-1,2.8222933E-2,1.8207233E-1,6.726952E-3,1.924039E-1],"split_indices":[8,2,20,20,27,43,2,2,1,21,6,42,14,2,1,8,28,0,2,8,40,2,11,0,40,40,1,2,0,0,0,1,8,14,0,2,0,1,0,2,2,0,2,1,2,48,40,2,8,2,8,1,0,0,2,0,0,0,0,0,0,0,0,0,0,0,0,0,0,0,0,0,0,0,0,0,0,0,0,0,0,0,0,0,0,0,0,0,0,0,0,0,0,0,0],"split_type":[0,0,0,0,0,0,0,0,0,0,0,0,0,0,0,0,0,0,0,0,0,0,0,0,0,0,0,0,0,0,0,0,0,0,0,0,0,0,0,0,0,0,0,0,0,0,0,0,0,0,0,0,0,0,0,0,0,0,0,0,0,0,0,0,0,0,0,0,0,0,0,0,0,0,0,0,0,0,0,0,0,0,0,0,0,0,0,0,0,0,0,0,0,0,0],"sum_hessian":[3.0555405E3,1.1592767E3,1.8962637E3,3.3205563E2,8.2722107E2,1.8174023E3,7.886134E1,3.151461E2,1.6909548E1,1.5757304E2,6.696481E2,8.839354E2,9.334669E2,2.3793081E1,5.5068264E1,3.0886115E2,6.284965E0,7.482101E0,9.427447E0,6.6441055E1,9.113199E1,3.1574467E1,6.3807355E2,5.725304E2,3.1140506E2,8.414371E2,9.202985E1,1.9154179E1,4.6389027E0,2.7983057E1,2.7085205E1,2.5005182E2,5.8809315E1,4.7885447E0,1.4964201E0,8.230311E0,1.1971362E0,2.1847734E1,4.4593323E1,5.9557526E1,3.1574467E1,1.9453462E0,2.962912E1,6.157769E2,2.2296661E1,1.9064394E2,3.8188644E2,1.3737137E2,1.7403368E2,6.021595E2,2.3927759E2,7.137924E1,2.0650599E1,1.2869214E1,6.284965E0,1.3467782E0,3.2921245E0,1.2360431E2,1.2644751E2,3.501623E1,2.3793081E1,3.5914085E0,1.1971362E0,6.434607E0,1.7957042E0,2.5439143E0,1.9303822E1,1.3018856E1,3.1574467E1,2.3493797E1,3.606373E1,6.284965E0,2.5289501E1,2.2745586E1,6.883533E0,3.9550385E2,2.2027306E2,1.2869214E1,9.427447E0,6.674034E1,1.23903595E2,1.6281052E2,2.1907591E2,3.2472317E1,1.04899055E2,1.1178259E2,6.225108E1,3.9086496E2,2.1129454E2,2.015678E2,3.770979E1,2.304487E1,4.8334373E1,1.4964201E0,4.7885447E0],"tree_param":{"num_deleted":"0","num_feature":"52","num_nodes":"95","size_leaf_vector":"1"}},{"base_weights":[-3.636194E-3,-5.621579E-1,3.2247347E-1,-8.865977E-1,-1.7420956E-1,2.2386533E-1,2.257097E0,-1.058714E0,-7.369051E-1,7.4769324E-1,-3.446682E-1,5.8412385E-1,-1.3887994E-1,2.5875634E-1,1.7435011E-1,-9.619334E-2,-1.150826E-1,-5.494713E-1,-9.5169663E-1,1.5371345E-1,5.1293933E-1,5.801377E-2,-5.4758966E-1,-2.1179701E-1,8.3377075E-1,-4.819049E-2,-9.9463034E-1,-4.213583E-1,-6.660514E-2,-1.1023064E0,-5.5270262E-2,1.02526374E-1,1.2881619E-1,1.2749569E-1,-3.91098E-2,-8.102832E-1,-2.5363162E-1,5.783748E-1,-3.3638203E-1,1.2657247E0,4.9497527E-1,4.001932E-1,-1.90606E-1,-1.0815781E-1,-6.165352E-2,-4.9842164E-2,-3.568395E-2,-8.408966E-2,-1.1371046E-1,-5.348548E-2,3.4313485E-2,-8.251965E-2,1.4881067E-2,-9.343417E-2,-5.890981E-2,-4.2490564E-2,-1.0380643E-2,1.1095049E-1,-7.581832E-2,-6.4707264E-2,3.8691217E-3,8.6688235E-2,1.6638741E-1,1.7388446E-2,1.0430278E-1,-2.333157E-2,8.57018E-2,-5.6985404E-2,-7.311862E-3],"categories":[],"categories_nodes":[],"categories_segments":[],"categories_sizes":[],"default_left":[0,0,0,0,0,0,0,0,0,0,0,0,0,0,0,0,0,0,0,0,0,0,0,0,0,0,0,0,0,0,0,0,0,0,0,0,0,0,0,0,0,0,0,0,0,0,0,0,0,0,0,0,0,0,0,0,0,0,0,0,0,0,0,0,0,0,0,0,0],"id":1,"left_children":[1,3,5,7,9,11,13,15,17,19,21,23,25,-1,-1,-1,-1,27,29,-1,31,33,35,37,39,41,43,45,-1,47,-1,49,-1,-1,51,53,55,57,59,61,63,65,67,-1,-1,-1,-1,-1,-1,-1,-1,-1,-1,-1,-1,-1,-1,-1,-1,-1,-1,-1,-1,-1,-1,-1,-1,-1,-1],"loss_changes":[5.608033E2,1.42707E2,3.7034216E2,1.5138824E1,8.168557E1,2.4194568E2,1.14713745E1,1.4346619E0,1.2913513E1,1.4254932E1,3.582138E1,1.8472205E2,7.158523E1,0E0,0E0,0E0,0E0,2.4165459E0,8.654449E0,0E0,2.025205E1,1.750282E1,2.2291168E1,2.210381E1,1.0286975E2,5.343654E1,2.23909E0,2.634678E-1,0E0,5.2703857E-2,0E0,6.774509E0,0E0,0E0,2.046706E1,3.6585922E0,3.521222E0,2.261962E1,2.2501411E1,4.782086E1,6.9854294E1,5.8588223E1,2.8246113E1,0E0,0E0,0E0,0E0,0E0,0E0,0E0,0E0,0E0,0E0,0E0,0E0,0E0,0E0,0E0,0E0,0E0,0E0,0E0,0E0,0E0,0E0,0E0,0E0,0E0,0E0],"parents":[2147483647,0,0,1,1,2,2,3,3,4,4,5,5,6,6,7,7,8,8,9,9,10,10,11,11,12,12,17,17,18,18,20,20,21,21,22,22,23,23,24,24,25,25,26,26,27,27,29,29,31,31,34,34,35,35,36,36,37,37,38,38,39,39,40,40,41,41,42,42],"right_children":[2,4,6,8,10,12,14,16,18,20,22,24,26,-1,-1,-1,-1,28,30,-1,32,34,36,38,40,42,44,46,-1,48,-1,50,-1,-1,52,54,56,58,60,62,64,66,68,-1,-1,-1,-1,-1,-1,-1,-1,-1,-1,-1,-1,-1,-1,-1,-1,-1,-1,-1,-1,-1,-1,-1,-1,-1,-1],"split_conditions":[-4.6318084E-1,-4.9010816E-1,1.5587159E0,-1.1606973E0,-5.8388025E-1,-2.7358696E-1,6.0333E-1,8.060298E-1,8.060298E-1,-8.97992E-1,-2.561703E-1,-1.0763601E0,1.5046736E0,2.5875634E-1,1.7435011E-1,-9.619334E-2,-1.150826E-1,-5.912578E-1,-1.5323003E-1,1.5371345E-1,-6.529648E-1,3.2604104E-1,6.100797E-1,-1.1014243E-1,-7.2159183E-1,-4.1943023E-1,7.153094E-1,-1.1883395E0,-6.660514E-2,-1.5242776E0,-5.5270262E-2,-2.9250473E-1,1.2881619E-1,1.2749569E-1,4.32624E-1,-1.0825322E0,-4.2372158E-1,-1.4122982E0,-1.3003188E0,-4.786E-1,-4.6074313E-1,-7.2159183E-1,-5.912578E-1,-1.0815781E-1,-6.165352E-2,-4.9842164E-2,-3.568395E-2,-8.408966E-2,-1.1371046E-1,-5.348548E-2,3.4313485E-2,-8.251965E-2,1.4881067E-2,-9.343417E-2,-5.890981E-2,-4.2490564E-2,-1.0380643E-2,1.1095049E-1,-7.581832E-2,-6.4707264E-2,3.8691217E-3,8.6688235E-2,1.6638741E-1,1.7388446E-2,1.0430278E-1,-2.333157E-2,8.57018E-2,-5.6985404E-2,-7.311862E-3],"split_indices":[8,24,20,8,26,43,0,3,3,8,15,0,3,0,0,0,0,3,15,0,8,40,1,8,40,7,0,0,0,0,0,0,0,0,40,14,28,0,0,42,41,40,3,0,0,0,0,0,0,0,0,0,0,0,0,0,0,0,0,0,0,0,0,0,0,0,0,0,0],"split_type":[0,0,0,0,0,0,0,0,0,0,0,0,0,0,0,0,0,0,0,0,0,0,0,0,0,0,0,0,0,0,0,0,0,0,0,0,0,0,0,0,0,0,0,0,0,0,0,0,0,0,0,0,0,0,0,0,0,0,0,0,0,0,0,0,0,0,0,0,0],"sum_hessian":[3.076984E3,1.1340295E3,1.9429543E3,6.168636E2,5.1716595E2,1.8497861E3,9.316825E1,2.8411536E2,3.327482E2,8.0173256E1,4.3699274E2,9.2776807E2,9.2201807E2,5.4234E1,3.893425E1,1.4412671E2,1.3998866E2,1.7959026E2,1.5315794E2,1.7104753E1,6.3068504E1,1.4666382E2,2.9032892E2,2.2155647E2,7.062116E2,8.3462384E2,8.7394226E1,8.776134E1,9.182892E1,1.099079E2,4.3250053E1,4.1977383E1,2.1091122E1,9.943697E0,1.3672012E2,1.5239012E2,1.3793878E2,2.9678734E1,1.9187773E2,3.0922424E2,3.9698734E2,2.0075449E2,6.338694E2,6.954164E1,1.7852585E1,3.6928062E1,5.083328E1,1.58682375E1,9.403966E1,1.1168547E1,3.0808836E1,2.572387E1,1.10996254E2,9.556518E1,5.682494E1,6.3505684E1,7.4433105E1,2.1360312E1,8.318421E0,1.04549416E2,8.732832E1,1.5606496E2,1.5315929E2,2.5115749E2,1.4582986E2,8.431651E1,1.1643798E2,1.4901149E2,4.8485788E2],"tree_param":{"num_deleted":"0","num_feature":"52","num_nodes":"69","size_leaf_vector":"1"}},{"base_weights":[-9.848321E-3,-5.423836E-1,2.8238907E-1,-6.268115E-1,6.6833484E-1,8.991099E-1,4.9441554E-2,-2.1039218E-1,-8.3102316E-1,1.2351762E-3,1.4729826E-1,4.7273552E-1,1.5613672E0,3.5531184E-1,-2.0245475E-1,2.8211778E-1,-3.685415E-1,-8.803231E-1,6.1563887E-2,3.238414E-2,-8.485948E-2,9.0497774E-1,1.5299097E-1,1.7955606E0,7.634225E-2,-2.026335E-1,5.878059E-1,-1.15582824E-1,-9.650236E-1,8.787699E-1,-5.4102954E-2,-7.111707E-2,-2.5979346E-1,-1.0441161E0,-7.9619235E-1,1.0342597E0,-6.025879E-1,5.477092E-1,-3.5330963E-1,1.9237944E-1,1.385346E-1,-6.633352E-1,3.0747335E-2,1.3785343E-1,3.9945415E-1,-5.54794E-1,-1.2773464E-2,-1.0737743E-1,-5.6929838E-2,1.12664714E-1,6.933383E-2,-3.8086426E-2,-1.6783023E-2,-9.730153E-2,-1.1432796E-1,-4.9979463E-2,-8.291328E-2,1.11414455E-1,1.706415E-2,8.869281E-4,-9.2359945E-2,1.0787785E-1,-9.112204E-4,-7.2153226E-2,3.8396853E-3,-7.727363E-2,-3.798146E-2,8.529019E-2,-1.5711082E-2,-3.2978576E-2,6.0994137E-2,-1.09549565E-2,-7.286086E-2,2.9424166E-2,-9.105693E-3],"categories":[],"categories_nodes":[],"categories_segments":[],"categories_sizes":[],"default_left":[0,0,0,0,0,0,0,0,0,0,0,0,0,0,0,0,0,0,0,0,0,0,0,0,0,0,0,0,0,0,0,0,0,0,0,0,0,0,0,0,0,0,0,0,0,0,0,0,0,0,0,0,0,0,0,0,0,0,0,0,0,0,0,0,0,0,0,0,0,0,0,0,0,0,0],"id":2,"left_children":[1,3,5,7,9,11,13,15,17,19,-1,21,23,25,27,29,31,33,-1,-1,-1,35,37,39,-1,41,43,45,47,49,-1,-1,51,53,55,57,59,61,63,-1,-1,65,67,-1,69,71,73,-1,-1,-1,-1,-1,-1,-1,-1,-1,-1,-1,-1,-1,-1,-1,-1,-1,-1,-1,-1,-1,-1,-1,-1,-1,-1,-1,-1],"loss_changes":[4.7403873E2,1.1073987E2,2.8250558E2,8.566455E1,3.802323E1,1.5150174E2,1.1014188E2,2.6078743E1,4.8822144E1,1.1167392E1,0E0,4.5389862E1,3.8009094E1,8.385794E1,5.1828938E1,4.056267E1,9.236786E0,8.195282E0,0E0,0E0,0E0,2.7883308E1,3.8275124E1,5.8658447E0,0E0,2.0515457E1,6.735213E1,3.1827553E1,2.8336487E0,1.4114647E0,0E0,0E0,2.0906696E0,4.3217468E-1,3.8520203E0,8.722534E0,2.3005652E0,3.1789474E1,1.2155874E1,0E0,0E0,1.6959133E0,1.982304E1,0E0,5.693643E1,1.0267284E1,1.3781733E1,0E0,0E0,0E0,0E0,0E0,0E0,0E0,0E0,0E0,0E0,0E0,0E0,0E0,0E0,0E0,0E0,0E0,0E0,0E0,0E0,0E0,0E0,0E0,0E0,0E0,0E0,0E0,0E0],"parents":[2147483647,0,0,1,1,2,2,3,3,4,4,5,5,6,6,7,7,8,8,9,9,11,11,12,12,13,13,14,14,15,15,16,16,17,17,21,21,22,22,23,23,25,25,26,26,27,27,28,28,29,29,32,32,33,33,34,34,35,35,36,36,37,37,38,38,41,41,42,42,44,44,45,45,46,46],"right_children":[2,4,6,8,10,12,14,16,18,20,-1,22,24,26,28,30,32,34,-1,-1,-1,36,38,40,-1,42,44,46,48,50,-1,-1,52,54,56,58,60,62,64,-1,-1,66,68,-1,70,72,74,-1,-1,-1,-1,-1,-1,-1,-1,-1,-1,-1,-1,-1,-1,-1,-1,-1,-1,-1,-1,-1,-1,-1,-1,-1,-1,-1,-1],"split_conditions":[-4.6318084E-1,1.5587159E0,-6.306868E-1,-5.912578E-1,-5.912578E-1,8.003564E-1,-3.928767E-1,-5.539308E-1,1.4896911E0,6.0333E-1,1.4729826E-1,4.5103183E-1,-3.5823542E-1,-1.1883395E0,1.5046736E0,7.9703E-2,-7.981246E-1,-1.1606973E0,6.1563887E-2,3.238414E-2,-8.485948E-2,-7.981246E-1,-6.191311E-1,1.2752061E0,7.634225E-2,-5.933125E-1,-7.8837526E-1,-5.912578E-1,-4.0448406E-1,-8.97992E-1,-5.4102954E-2,-7.111707E-2,1.5559083E-1,1.5046736E0,1.07386E-1,-4.0081614E-1,-5.912578E-1,-7.5568384E-1,-2.5661823E-1,1.9237944E-1,1.385346E-1,8.060298E-1,-5.2570426E-1,1.3785343E-1,-4.8143816E-1,-4.0448406E-1,2.3623721E-1,-1.0737743E-1,-5.6929838E-2,1.12664714E-1,6.933383E-2,-3.8086426E-2,-1.6783023E-2,-9.730153E-2,-1.1432796E-1,-4.9979463E-2,-8.291328E-2,1.11414455E-1,1.706415E-2,8.869281E-4,-9.2359945E-2,1.0787785E-1,-9.112204E-4,-7.2153226E-2,3.8396853E-3,-7.727363E-2,-3.798146E-2,8.529019E-2,-1.5711082E-2,-3.2978576E-2,6.0994137E-2,-1.09549565E-2,-7.286086E-2,2.9424166E-2,-9.105693E-3],"split_indices":[8,20,18,3,3,20,29,30,11,0,0,8,40,0,3,22,17,8,0,0,0,17,40,0,0,48,48,3,0,8,0,0,15,3,3,48,3,6,40,0,0,3,6,0,20,0,8,0,0,0,0,0,0,0,0,0,0,0,0,0,0,0,0,0,0,0,0,0,0,0,0,0,0,0,0],"split_type":[0,0,0,0,0,0,0,0,0,0,0,0,0,0,0,0,0,0,0,0,0,0,0,0,0,0,0,0,0,0,0,0,0,0,0,0,0,0,0,0,0,0,0,0,0,0,0,0,0,0,0,0,0,0,0,0,0,0,0,0,0,0,0,0,0,0,0,0,0,0,0,0,0,0,0],"sum_hessian":[3.0440144E3,1.0782665E3,1.9657479E3,1.0084273E3,6.983913E1,5.381511E2,1.4275968E3,3.3247968E2,6.7594763E2,3.8730686E1,3.1108446E1,3.2842096E2,2.0973013E2,6.4454016E2,7.830567E2,8.062202E1,2.5185765E2,6.540501E2,2.1897528E1,2.8522223E1,1.0208463E1,1.3886624E2,1.8955472E2,1.6117554E2,4.8554596E1,1.8961812E2,4.5492203E2,7.040076E2,7.904906E1,4.6702496E1,3.3919525E1,5.934415E1,1.9251349E2,2.1807413E2,4.3597598E2,1.2818742E2,1.0678814E1,1.0646865E2,8.308607E1,1.1997987E2,4.1195663E1,6.313843E1,1.2647969E2,8.630058E1,3.6862143E2,1.3270085E2,5.713068E2,6.0664246E1,1.8384811E1,1.7813862E1,2.8888634E1,8.174876E1,1.1076474E2,1.3330537E2,8.476875E1,4.522398E1,3.90752E2,1.17068474E2,1.111895E1,4.011035E0,6.6677794E0,5.4014675E1,5.245397E1,4.2392807E1,4.069326E1,4.4313744E1,1.8824686E1,2.2866241E1,1.0361345E2,8.2439674E1,2.8618176E2,3.771644E1,9.498441E1,1.1551538E2,4.557914E2],"tree_param":{"num_deleted":"0","num_feature":"52","num_nodes":"75","size_leaf_vector":"1"}},{"base_weights":[-3.7947916E-3,-4.922998E-1,2.4828716E-1,1.1048106E-1,-7.5252944E-1,7.6169413E-1,5.0006248E-2,2.1418886E-2,2.598818E0,-1.4539853E-1,-9.128262E-1,3.8806307E-1,1.3114947E0,4.333537E-1,-1.1312943E-1,2.7577382E-1,-4.6796393E-1,3.0656937E-1,-2.9650886E-2,2.4992353E-1,-4.9662775E-1,-4.3017507E-1,-9.368598E-1,-3.6483906E-2,7.025487E-1,1.5082524E0,6.31283E-1,7.11963E-1,-8.1338845E-3,1.2819073E0,-1.5348502E-1,6.212566E-1,-2.3921625E-1,-7.8727376E-1,-2.0332842E-1,9.683483E-1,-1.877668E-1,-6.528153E-1,-2.1340773E-1,3.7771076E-2,-4.9311045E-1,-9.630974E-1,-5.4298794E-1,4.591805E-1,-6.536041E-1,6.4260095E-2,8.549367E-1,1.0387301E0,1.7782638E0,-2.7056938E-1,9.306038E-1,1.3420267E-1,9.9357015E-1,-5.7581043E-1,2.5598782E-1,-4.4895098E-1,2.4676552E-1,-4.3159217E-2,-5.8058465E-1,7.869567E-2,-4.2476658E-2,-8.72132E-2,5.684683E-3,-2.8948797E-2,-8.684818E-2,-6.2116046E-2,2.7334228E-2,-8.817869E-2,1.2271867E-1,-8.450999E-2,6.1204312E-3,-2.4483008E-2,-8.3297394E-2,-3.6296215E-2,6.01449E-2,-6.9630936E-2,-1.7077833E-2,-1.0393214E-1,-8.319252E-2,-5.9857924E-2,4.1072357E-2,-6.985077E-2,6.824221E-2,9.115482E-2,-9.4936125E-2,1.1327356E-1,-1.1420201E-2,9.583631E-2,-1.8114388E-2,1.6224962E-1,8.088465E-2,1.8074578E-1,8.420627E-3,-1.04365066E-1,2.2051584E-2,9.828179E-2,-1.1453356E-2,4.2629953E-2,-3.955853E-2,2.8840328E-2,1.2727456E-1,-3.975235E-2,-1.00161254E-1,-5.985447E-3,5.7490684E-2,6.3627936E-2,-9.1295384E-2,1.5888683E-2,-3.203032E-2,-4.7719132E-2,-1.1239252E-1],"categories":[],"categories_nodes":[],"categories_segments":[],"categories_sizes":[],"default_left":[0,0,0,0,0,0,0,0,0,0,0,0,0,0,0,0,0,0,0,0,0,0,0,0,0,0,0,0,0,0,0,0,0,0,0,0,0,0,0,0,0,0,0,0,0,0,0,0,0,0,0,0,0,0,0,0,0,0,0,0,0,0,0,0,0,0,0,0,0,0,0,0,0,0,0,0,0,0,0,0,0,0,0,0,0,0,0,0,0,0,0,0,0,0,0,0,0,0,0,0,0,0,0,0,0,0,0,0,0,0,0],"id":3,"left_children":[1,3,5,7,9,11,13,15,17,19,21,23,25,27,29,31,33,-1,-1,35,37,39,41,43,45,47,49,51,53,55,57,59,61,63,65,67,69,71,73,-1,75,77,79,81,83,85,87,89,91,93,95,97,99,101,103,105,-1,107,109,-1,-1,-1,-1,-1,-1,-1,-1,-1,-1,-1,-1,-1,-1,-1,-1,-1,-1,-1,-1,-1,-1,-1,-1,-1,-1,-1,-1,-1,-1,-1,-1,-1,-1,-1,-1,-1,-1,-1,-1,-1,-1,-1,-1,-1,-1,-1,-1,-1,-1,-1,-1],"loss_changes":[3.7493542E2,1.6264796E2,2.0441019E2,6.939296E1,7.0326416E1,1.1441904E2,9.072146E1,3.7914326E1,1.5535431E1,2.1286375E1,6.2387695E0,4.4689087E1,2.9288025E1,5.326905E1,5.7499737E1,3.5798145E1,8.643578E0,0E0,0E0,2.2938564E1,3.4456081E0,1.66115E0,5.104767E0,4.413412E1,1.8641884E1,2.0279694E1,1.4400534E1,4.30634E1,2.541586E1,6.0059303E1,4.6630264E1,2.116766E1,1.5259541E1,1.6431293E0,1.1784829E1,1.4280678E1,7.548778E0,3.599781E0,3.9098535E0,0E0,1.6721306E0,4.227173E0,2.170559E0,2.1167454E1,3.0603987E1,7.399726E0,1.6792984E1,7.5620346E0,5.258606E0,5.48287E0,2.2723846E0,1.3810908E1,3.4741837E1,3.687643E0,1.1689439E1,6.887209E0,0E0,4.4173138E1,1.0877907E1,0E0,0E0,0E0,0E0,0E0,0E0,0E0,0E0,0E0,0E0,0E0,0E0,0E0,0E0,0E0,0E0,0E0,0E0,0E0,0E0,0E0,0E0,0E0,0E0,0E0,0E0,0E0,0E0,0E0,0E0,0E0,0E0,0E0,0E0,0E0,0E0,0E0,0E0,0E0,0E0,0E0,0E0,0E0,0E0,0E0,0E0,0E0,0E0,0E0,0E0,0E0,0E0],"parents":[2147483647,0,0,1,1,2,2,3,3,4,4,5,5,6,6,7,7,8,8,9,9,10,10,11,11,12,12,13,13,14,14,15,15,16,16,19,19,20,20,21,21,22,22,23,23,24,24,25,25,26,26,27,27,28,28,29,29,30,30,31,31,32,32,33,33,34,34,35,35,36,36,37,37,38,38,40,40,41,41,42,42,43,43,44,44,45,45,46,46,47,47,48,48,49,49,50,50,51,51,52,52,53,53,54,54,55,55,57,57,58,58],"right_children":[2,4,6,8,10,12,14,16,18,20,22,24,26,28,30,32,34,-1,-1,36,38,40,42,44,46,48,50,52,54,56,58,60,62,64,66,68,70,72,74,-1,76,78,80,82,84,86,88,90,92,94,96,98,100,102,104,106,-1,108,110,-1,-1,-1,-1,-1,-1,-1,-1,-1,-1,-1,-1,-1,-1,-1,-1,-1,-1,-1,-1,-1,-1,-1,-1,-1,-1,-1,-1,-1,-1,-1,-1,-1,-1,-1,-1,-1,-1,-1,-1,-1,-1,-1,-1,-1,-1,-1,-1,-1,-1,-1,-1],"split_conditions":[-4.6318084E-1,-4.1590855E-1,-6.306868E-1,-4.506187E-1,-2.5988063E-1,8.003564E-1,1.4692074E-1,9.0923154E-1,-1.8233865E-1,3.1608498E-1,-8.7067366E-1,-6.868729E-1,-3.5823542E-1,-7.2159183E-1,-3.605781E-1,5.991315E-1,6.100797E-1,3.0656937E-1,-2.9650886E-2,-8.118108E-1,5.193805E-1,7.7515376E-1,5.792177E-1,-7.409747E-1,-8.5182154E-1,-6.7532146E-1,-4.889826E-1,-1.0763601E0,-1.1006533E0,-4.3417707E-1,2.8078443E-1,9.1622576E-2,-2.2684364E-1,-1.5242776E0,5.573577E-1,6.100797E-1,-2.9250473E-1,2.3034012E-1,1.4776229E0,3.7771076E-2,9.492061E-1,6.100797E-1,1.6315352E0,-7.671207E-1,4.5103183E-1,-3.7480438E-1,6.694988E-1,6.0333E-1,1.7014122E0,6.100797E-1,1.6461499E0,-3.318734E-1,-5.0177056E-1,1.0332413E0,4.9203658E-1,-1.3873367E0,2.4676552E-1,-3.8896248E-1,6.8254775E-1,7.869567E-2,-4.2476658E-2,-8.72132E-2,5.684683E-3,-2.8948797E-2,-8.684818E-2,-6.2116046E-2,2.7334228E-2,-8.817869E-2,1.2271867E-1,-8.450999E-2,6.1204312E-3,-2.4483008E-2,-8.3297394E-2,-3.6296215E-2,6.01449E-2,-6.9630936E-2,-1.7077833E-2,-1.0393214E-1,-8.319252E-2,-5.9857924E-2,4.1072357E-2,-6.985077E-2,6.824221E-2,9.115482E-2,-9.4936125E-2,1.1327356E-1,-1.1420201E-2,9.583631E-2,-1.8114388E-2,1.6224962E-1,8.088465E-2,1.8074578E-1,8.420627E-3,-1.04365066E-1,2.2051584E-2,9.828179E-2,-1.1453356E-2,4.2629953E-2,-3.955853E-2,2.8840328E-2,1.2727456E-1,-3.975235E-2,-1.00161254E-1,-5.985447E-3,5.7490684E-2,6.3627936E-2,-9.1295384E-2,1.5888683E-2,-3.203032E-2,-4.7719132E-2,-1.1239252E-1],"split_indices":[8,2,18,2,26,20,25,48,29,18,6,48,40,40,8,21,1,0,0,8,40,40,47,48,1,2,2,0,6,2,40,9,48,0,14,1,0,2,2,0,2,1,2,2,8,2,9,0,2,1,2,2,2,2,2,2,0,2,8,0,0,0,0,0,0,0,0,0,0,0,0,0,0,0,0,0,0,0,0,0,0,0,0,0,0,0,0,0,0,0,0,0,0,0,0,0,0,0,0,0,0,0,0,0,0,0,0,0,0,0,0],"split_type":[0,0,0,0,0,0,0,0,0,0,0,0,0,0,0,0,0,0,0,0,0,0,0,0,0,0,0,0,0,0,0,0,0,0,0,0,0,0,0,0,0,0,0,0,0,0,0,0,0,0,0,0,0,0,0,0,0,0,0,0,0,0,0,0,0,0,0,0,0,0,0,0,0,0,0,0,0,0,0,0,0,0,0,0,0,0,0,0,0,0,0,0,0,0,0,0,0,0,0,0,0,0,0,0,0,0,0,0,0,0,0],"sum_hessian":[3.0427158E3,1.0353591E3,2.0073566E3,3.123727E2,7.2298645E2,5.58471E2,1.4488855E3,3.025524E2,9.820301E0,1.514124E2,5.715741E2,3.3352286E2,2.2494817E2,4.3202563E2,1.0168599E3,1.9936807E2,1.0318433E2,8.405982E0,1.4143184E0,7.137054E1,8.004186E1,2.800795E1,5.435661E2,1.4230244E2,1.9122041E2,1.7353438E2,5.1413795E1,2.64497E2,1.6752863E2,2.772372E1,9.8913617E2,1.1919761E2,8.017046E1,4.5866623E1,5.731771E1,2.6560968E1,4.480957E1,5.0749836E1,2.9292025E1,1.6627007E0,2.634525E1,5.082632E2,3.5302895E1,7.905901E1,6.3243427E1,3.7128143E1,1.5409227E2,6.512889E1,1.0840549E2,1.2835759E1,3.8578037E1,8.715719E1,1.7733981E2,5.2820812E1,1.1470782E2,1.1523715E1,1.6200006E1,7.869556E2,2.0218056E2,1.03111435E2,1.6086168E1,2.4930002E1,5.524046E1,7.07336E0,3.8793266E1,3.0382446E1,2.6935263E1,2.9644983E0,2.359647E1,1.1651894E1,3.3157677E1,1.6268147E1,3.448169E1,2.5218184E1,4.07384E0,1.5447124E1,1.0898127E1,3.1708313E2,1.9118008E2,3.3710308E1,1.5925854E0,1.2436541E1,6.6622475E1,9.720463E0,5.3522964E1,4.5484977E0,3.2579643E1,1.4017442E2,1.3917851E1,1.6689556E1,4.843933E1,1.0650316E2,1.9023257E0,4.5491524E0,8.286606E0,3.6799206E1,1.7788293E0,5.6307552E1,3.0849642E1,5.087304E1,1.26466774E2,3.859454E1,1.4226272E1,5.804003E1,5.6667786E1,3.3402073E0,8.183508E0,4.5538983E2,3.315658E2,1.7143594E2,3.0744627E1],"tree_param":{"num_deleted":"0","num_feature":"52","num_nodes":"111","size_leaf_vector":"1"}},{"base_weights":[6.845653E-4,1.3532183E-1,-7.730189E-1,2.5561017E-1,-4.8702943E-1,-3.6428624E-1,-8.9574206E-1,6.697057E-1,9.625524E-2,-6.00552E-1,7.482063E-1,-1.4131692E-1,-8.727947E-1,-7.8705096E-1,-1.06838085E-1,3.5767E-1,1.1311431E0,3.033178E-1,-8.0578215E-2,-8.004475E-1,-1.4191015E-1,1.023116E0,9.7398326E-2,-2.1959534E-1,1.7787166E-1,-1.8992026E-1,-1.06861494E-1,-6.4859366E-1,-9.180438E-1,1.0601975E0,2.1773449E-1,5.88715E-1,1.3135178E0,8.209285E-1,2.0293783E-1,1.8705003E-1,-4.909139E-1,-4.4291398E-1,-9.025028E-1,4.6767032E-1,-5.1490027E-1,1.4954162E0,4.2349398E-1,-8.3215736E-2,3.4869343E-1,1.23637825E-1,-6.5277994E-1,1.5220156E-1,-6.1603945E-1,-6.6716784E-1,2.1546612E-2,-9.3866277E-1,-1.9825165E-1,1.8931441E-1,-1.9887755E-2,3.1207284E-2,-4.6718456E-2,9.081348E-2,3.8637035E-2,9.387667E-2,1.4246917E-1,-5.71946E-2,1.0736916E-1,-4.1634392E-2,3.0088667E-2,1.0975289E-1,1.1358339E-3,-5.4267716E-2,4.354472E-2,2.6704779E-2,-4.7774937E-2,-7.623683E-2,-1.0529909E-1,8.339003E-2,2.8739363E-2,-1.8085834E-2,-9.1925256E-2,1.7146006E-1,3.0094648E-2,-1.1221959E-2,5.240778E-2,1.265001E-1,9.445283E-3,6.942058E-2,-2.117835E-2,-8.218738E-2,-2.4342619E-2,-1.6803999E-2,6.7294054E-2,-7.4903175E-2,-1.5513337E-2,-7.9959504E-2,-4.673912E-2,-9.452962E-2,-2.6920915E-2,1.7120494E-2,-4.303906E-2],"categories":[],"categories_nodes":[],"categories_segments":[],"categories_sizes":[],"default_left":[0,0,0,0,0,0,0,0,0,0,0,0,0,0,0,0,0,0,0,0,0,0,0,0,0,0,0,0,0,0,0,0,0,0,0,0,0,0,0,0,0,0,0,0,0,0,0,0,0,0,0,0,0,0,0,0,0,0,0,0,0,0,0,0,0,0,0,0,0,0,0,0,0,0,0,0,0,0,0,0,0,0,0,0,0,0,0,0,0,0,0,0,0,0,0,0,0],"id":4,"left_children":[1,3,5,7,9,11,13,15,17,19,21,23,25,27,-1,29,31,33,35,37,39,41,43,45,-1,47,-1,49,51,53,55,57,59,61,63,65,67,69,71,73,75,77,79,-1,81,83,85,87,89,91,-1,93,95,-1,-1,-1,-1,-1,-1,-1,-1,-1,-1,-1,-1,-1,-1,-1,-1,-1,-1,-1,-1,-1,-1,-1,-1,-1,-1,-1,-1,-1,-1,-1,-1,-1,-1,-1,-1,-1,-1,-1,-1,-1,-1,-1,-1],"loss_changes":[3.1459515E2,1.9269788E2,2.2127777E1,1.4223158E2,5.892475E1,1.1787862E1,5.606262E0,8.58519E1,5.7083298E1,3.4950623E1,6.2596188E0,1.1546339E1,4.053297E0,3.2974548E0,0E0,3.50474E1,2.3088837E1,3.7139954E1,9.248168E1,9.311661E0,2.6913174E1,6.413658E0,3.0140088E0,1.0816703E1,0E0,1.3051504E0,0E0,1.8731194E0,1.4150925E0,6.2617195E1,1.9562622E1,3.6890945E0,6.1496277E0,4.1559113E1,3.6684914E1,8.155633E1,1.6174576E1,1.6378222E0,3.5433197E0,2.7350283E0,9.728218E0,3.0247917E0,7.247584E-1,0E0,2.1830876E0,8.017949E0,2.0204897E0,1.015409E0,1.2277055E-1,2.4234695E0,0E0,2.1008301E-1,4.400888E-1,0E0,0E0,0E0,0E0,0E0,0E0,0E0,0E0,0E0,0E0,0E0,0E0,0E0,0E0,0E0,0E0,0E0,0E0,0E0,0E0,0E0,0E0,0E0,0E0,0E0,0E0,0E0,0E0,0E0,0E0,0E0,0E0,0E0,0E0,0E0,0E0,0E0,0E0,0E0,0E0,0E0,0E0,0E0,0E0],"parents":[2147483647,0,0,1,1,2,2,3,3,4,4,5,5,6,6,7,7,8,8,9,9,10,10,11,11,12,12,13,13,15,15,16,16,17,17,18,18,19,19,20,20,21,21,22,22,23,23,25,25,27,27,28,28,29,29,30,30,31,31,32,32,33,33,34,34,35,35,36,36,37,37,38,38,39,39,40,40,41,41,42,42,44,44,45,45,46,46,47,47,48,48,49,49,51,51,52,52],"right_children":[2,4,6,8,10,12,14,16,18,20,22,24,26,28,-1,30,32,34,36,38,40,42,44,46,-1,48,-1,50,52,54,56,58,60,62,64,66,68,70,72,74,76,78,80,-1,82,84,86,88,90,92,-1,94,96,-1,-1,-1,-1,-1,-1,-1,-1,-1,-1,-1,-1,-1,-1,-1,-1,-1,-1,-1,-1,-1,-1,-1,-1,-1,-1,-1,-1,-1,-1,-1,-1,-1,-1,-1,-1,-1,-1,-1,-1,-1,-1,-1,-1],"split_conditions":[9.0923154E-1,1.5046736E0,-4.1590855E-1,-6.306868E-1,1.5587159E0,8.060298E-1,8.060298E-1,8.003564E-1,-4.1943023E-1,1.4260662E0,8.053832E-2,-4.6340668E-1,-1.5242776E0,6.8750966E-1,-1.06838085E-1,-3.7480438E-1,-5.912578E-1,-7.8837526E-1,-3.8896248E-1,-4.4940877E-1,8.498214E-1,6.0333E-1,5.504958E-1,-1.0089318E0,1.7787166E-1,-1.1667445E0,-1.06861494E-1,6.751784E-1,1.5421405E0,-8.4156066E-2,8.2728875E-1,-2.2271901E-1,-1.0754019E0,-1.3003188E0,-1.1117493E0,-2.0792422E-1,4.629943E-1,-1.4914536E0,-5.5009407E-1,-3.7480438E-1,-5.629701E-1,-4.1590855E-1,-1.5407922E0,-8.3215736E-2,7.308974E-1,-1.2297708E0,-8.593767E-1,-1.3220268E0,-8.0411446E-1,-7.0781153E-1,2.1546612E-2,1.7425163E0,1.116363E0,1.8931441E-1,-1.9887755E-2,3.1207284E-2,-4.6718456E-2,9.081348E-2,3.8637035E-2,9.387667E-2,1.4246917E-1,-5.71946E-2,1.0736916E-1,-4.1634392E-2,3.0088667E-2,1.0975289E-1,1.1358339E-3,-5.4267716E-2,4.354472E-2,2.6704779E-2,-4.7774937E-2,-7.623683E-2,-1.0529909E-1,8.339003E-2,2.8739363E-2,-1.8085834E-2,-9.1925256E-2,1.7146006E-1,3.0094648E-2,-1.1221959E-2,5.240778E-2,1.265001E-1,9.445283E-3,6.942058E-2,-2.117835E-2,-8.218738E-2,-2.4342619E-2,-1.6803999E-2,6.7294054E-2,-7.4903175E-2,-1.5513337E-2,-7.9959504E-2,-4.673912E-2,-9.452962E-2,-2.6920915E-2,1.7120494E-2,-4.303906E-2],"split_indices":[48,3,2,18,20,3,3,20,7,4,2,2,0,2,0,2,3,48,2,32,7,0,2,13,0,2,0,2,7,23,0,2,2,0,7,14,46,15,8,2,2,2,2,0,2,2,2,2,2,44,0,2,2,0,0,0,0,0,0,0,0,0,0,0,0,0,0,0,0,0,0,0,0,0,0,0,0,0,0,0,0,0,0,0,0,0,0,0,0,0,0,0,0,0,0,0,0],"split_type":[0,0,0,0,0,0,0,0,0,0,0,0,0,0,0,0,0,0,0,0,0,0,0,0,0,0,0,0,0,0,0,0,0,0,0,0,0,0,0,0,0,0,0,0,0,0,0,0,0,0,0,0,0,0,0,0,0,0,0,0,0,0,0,0,0,0,0,0,0,0,0,0,0,0,0,0,0,0,0,0,0,0,0,0,0,0,0,0,0,0,0,0,0,0,0,0,0],"sum_hessian":[3.0180322E3,2.5713923E3,4.4663992E2,2.1553875E3,4.1600497E2,1.0405394E2,3.4258597E2,5.9806604E2,1.5573214E3,3.8146115E2,3.4543823E1,7.3224556E1,3.0829388E1,2.1364E2,1.2894597E2,3.578523E2,2.4021373E2,7.170172E2,8.403042E2,2.651516E2,1.1630953E2,2.3883184E1,1.0660638E1,7.120712E1,2.017435E0,7.309435E0,2.3519953E1,1.0675404E2,1.0688595E2,5.8347942E1,2.9950436E2,6.1506405E1,1.7870732E2,1.15298836E2,6.017184E2,5.0892102E2,3.313832E2,6.0064743E1,2.0508687E2,4.4055485E1,7.225405E1,1.2524314E1,1.13588705E1,1.776773E0,8.883865E0,4.0127075E1,3.1080044E1,4.410866E0,2.8985689E0,1.0473058E2,2.0234616E0,1.0361378E2,3.2721703E0,3.481339E1,2.3534552E1,2.6372427E2,3.5780094E1,2.2500008E1,3.9006397E1,4.3046825E1,1.3566049E2,1.7515465E1,9.778337E1,8.172995E1,5.1998846E2,8.1470955E1,4.2745007E2,3.1423834E2,1.714485E1,2.4975462E0,5.7567196E1,1.0933769E2,9.5749176E1,1.3336623E1,3.0718863E1,4.035961E1,3.1894438E1,1.0214509E1,2.309805E0,1.7772859E0,9.581585E0,1.0660639E0,7.8178015E0,1.4460095E1,2.566698E1,2.1281467E1,9.798575E0,3.1506186E0,1.2602473E0,1.7643464E0,1.1342226E0,6.1176014E1,4.355457E1,1.0218918E2,1.4246027E0,1.3639266E0,1.9082437E0],"tree_param":{"num_deleted":"0","num_feature":"52","num_nodes":"97","size_leaf_vector":"1"}},{"base_weights":[-3.682748E-3,-8.0334455E-1,1.0967305E-1,-7.3368007E-1,-1.100021E-1,3.6660492E-1,-1.07330486E-1,-5.8572408E-2,-8.892077E-2,2.7210966E-1,1.1821901E0,-1.7735496E-1,4.3957236E-1,7.628364E-1,1.9270925E-1,1.3425915E0,9.192925E-2,-2.1659528E-1,6.520891E-1,5.975942E-1,-1.063749E-1,9.838587E-1,5.759336E-1,5.4122186E-1,2.3289146E-2,1.528114E-1,1.06017604E-1,-1.3909546E-1,-5.100229E-1,1.01236835E-1,3.80478E-2,6.835065E-1,4.3618858E-2,8.221056E-2,1.0951841E-1,5.080981E-2,8.141719E-2,7.0578784E-2,2.9828346E-3,-8.115894E-3,3.382198E-2,1.0233815E-2,-2.5631016E-2,-3.026918E-2,-7.106636E-2,4.7623567E-2,9.742006E-2],"categories":[1,1,3],"categories_nodes":[12,28],"categories_segments":[0,1],"categories_sizes":[1,2],"default_left":[0,0,0,0,0,0,0,0,0,0,0,0,1,0,0,0,0,0,0,0,0,0,0,0,0,0,0,0,1,0,0,0,0,0,0,0,0,0,0,0,0,0,0,0,0,0,0],"id":5,"left_children":[1,3,5,7,-1,9,11,-1,-1,13,15,17,19,21,23,25,-1,27,29,31,-1,33,35,37,39,-1,-1,41,43,-1,-1,45,-1,-1,-1,-1,-1,-1,-1,-1,-1,-1,-1,-1,-1,-1,-1],"loss_changes":[2.7335358E2,6.931015E0,1.4730159E2,6.525406E0,0E0,9.289955E1,5.494355E1,0E0,0E0,4.2140068E1,4.0493317E0,4.150112E1,3.9333992E1,5.6632004E0,5.5222904E1,2.3432617E0,0E0,2.7538334E1,5.256378E0,1.7547798E0,0E0,3.1845856E-1,9.458294E-1,2.572779E1,2.0767782E1,0E0,0E0,2.7244884E1,1.0321632E1,0E0,0E0,5.251293E0,0E0,0E0,0E0,0E0,0E0,0E0,0E0,0E0,0E0,0E0,0E0,0E0,0E0,0E0,0E0],"parents":[2147483647,0,0,1,1,2,2,3,3,5,5,6,6,9,9,10,10,11,11,12,12,13,13,14,14,15,15,17,17,18,18,19,19,21,21,22,22,23,23,24,24,27,27,28,28,31,31],"right_children":[2,4,6,8,-1,10,12,-1,-1,14,16,18,20,22,24,26,-1,28,30,32,-1,34,36,38,40,-1,-1,42,44,-1,-1,46,-1,-1,-1,-1,-1,-1,-1,-1,-1,-1,-1,-1,-1,-1,-1],"split_conditions":[-7.3245394E-1,-7.2159183E-1,-5.022979E-1,-8.5240144E-1,-1.100021E-1,1.5587159E0,1.2133137E0,-5.8572408E-2,-8.892077E-2,-1.0941423E0,6.0333E-1,2.4324055E0,1E-45,-4.1071442E-1,-7.5568384E-1,-7.2159183E-1,9.192925E-2,1.0191555E0,7.1254265E-1,1.3101227E0,-1.063749E-1,9.3926805E-1,-5.955727E-1,-7.2159183E-1,-7.188944E-1,1.528114E-1,1.06017604E-1,-8.4156066E-2,1E-45,1.01236835E-1,3.80478E-2,-2.2833839E-1,4.3618858E-2,8.221056E-2,1.0951841E-1,5.080981E-2,8.141719E-2,7.0578784E-2,2.9828346E-3,-8.115894E-3,3.382198E-2,1.0233815E-2,-2.5631016E-2,-3.026918E-2,-7.106636E-2,4.7623567E-2,9.742006E-2],"split_indices":[9,40,40,0,0,20,14,0,0,12,0,20,51,6,6,40,0,40,40,40,0,0,40,40,40,0,0,23,51,0,0,40,0,0,0,0,0,0,0,0,0,0,0,0,0,0,0],"split_type":[0,0,0,0,0,0,0,0,0,0,0,0,1,0,0,0,0,0,0,0,0,0,0,0,0,0,0,0,1,0,0,0,0,0,0,0,0,0,0,0,0,0,0,0,0,0,0],"sum_hessian":[3.0136348E3,3.7340244E2,2.6402322E3,3.0520764E2,6.819478E1,1.2085828E3,1.4316495E3,1.5885365E2,1.4635399E2,1.0842886E3,1.24294106E2,1.2697488E3,1.619007E2,1.4980788E2,9.344808E2,7.464445E1,4.964966E1,1.213097E3,5.6651756E1,1.4704639E2,1.485432E1,6.668517E1,8.3122696E1,3.0495856E2,6.2952216E2,4.2388218E1,3.2256233E1,9.608044E2,2.5229272E2,2.3178848E1,3.3472908E1,9.3854965E1,5.3191418E1,3.0603605E1,3.608157E1,6.713855E1,1.5984147E1,2.3042719E2,7.4531395E1,4.7329437E2,1.562278E2,3.14055E2,6.467494E2,1.2531141E2,1.26981316E2,5.632929E1,3.7525673E1],"tree_param":{"num_deleted":"0","num_feature":"52","num_nodes":"47","size_leaf_vector":"1"}},{"base_weights":[-7.7791116E-3,1.0519404E-1,-7.405118E-1,4.621829E-1,-4.341446E-2,-3.2689488E-1,-8.7193984E-1,2.1436973E-1,8.019176E-1,6.088026E-2,-6.5055114E-1,-1.24298684E-1,-7.9325515E-1,-8.9174116E-1,-8.279293E-2,3.312822E-1,-6.78171E-1,9.668204E-1,3.663971E-1,2.2229081E-1,-1.066221E-1,-7.90206E-1,-4.421097E-1,1.6416799E-1,-5.392206E-1,-8.2997255E-2,-1.0320376E0,-7.968204E-1,-1.03889026E-1,1.5860976E-1,-5.0904846E-1,1.0336819E0,1.7988679E-1,8.017041E-2,-9.3933797E-1,6.728008E-1,1.06388E0,2.2106372E-1,5.946894E-1,-4.1572827E-1,2.8153184E-1,1.8159959E-1,-6.128987E-1,-5.619339E-1,-9.3097913E-1,-1.911782E-1,-8.046601E-1,-8.9622535E-2,2.6996288E-1,-6.3416845E-1,3.7666477E-2,2.6662326E-1,-4.554116E-1,-4.4979444E-1,-1.0722772E-1,-7.0727485E-1,-8.7980986E-1,-4.194197E-2,5.1151913E-1,-6.270689E-2,-1.4642526E-2,-4.2903755E-2,1.5198623E-1,2.9152095E-2,-4.300258E-2,6.282207E-2,-5.143174E-2,-9.6105285E-2,-9.697708E-3,1.1969971E-1,5.0666793E-3,1.307842E-1,8.617968E-2,4.6784822E-2,7.246915E-4,3.0436797E-2,1.2112265E-1,3.0940963E-2,-9.0339504E-2,7.562395E-2,1.9702865E-2,1.0856398E-1,-7.4544846E-4,-8.363897E-2,-3.3863746E-2,-2.7766123E-2,-5.9946775E-2,-3.7351813E-2,-9.5338434E-2,-2.5629684E-2,1.3259655E-1,-5.684636E-2,-9.029525E-2,8.197903E-2,-1.0236794E-3,-4.541494E-2,-9.362065E-2,-3.735991E-3,6.388437E-2,-7.715297E-2,1.14816185E-2,-5.6860685E-2,-1.2452437E-2,-8.4302984E-2,-4.3192547E-2,-9.5411904E-2,-7.5962655E-2,1.5235982E-2,8.079984E-2],"categories":[],"categories_nodes":[],"categories_segments":[],"categories_sizes":[],"default_left":[0,0,0,0,0,0,0,0,0,0,0,0,0,0,0,0,0,0,0,0,0,0,0,0,0,0,0,0,0,0,0,0,0,0,0,0,0,0,0,0,0,0,0,0,0,0,0,0,0,0,0,0,0,0,0,0,0,0,0,0,0,0,0,0,0,0,0,0,0,0,0,0,0,0,0,0,0,0,0,0,0,0,0,0,0,0,0,0,0,0,0,0,0,0,0,0,0,0,0,0,0,0,0,0,0,0,0,0,0],"id":6,"left_children":[1,3,5,7,9,11,13,15,17,19,21,23,25,27,29,31,33,35,37,39,41,43,45,47,49,51,53,55,-1,57,59,61,63,65,67,69,71,73,75,77,79,81,83,85,87,89,91,-1,93,95,-1,97,99,101,-1,103,105,-1,107,-1,-1,-1,-1,-1,-1,-1,-1,-1,-1,-1,-1,-1,-1,-1,-1,-1,-1,-1,-1,-1,-1,-1,-1,-1,-1,-1,-1,-1,-1,-1,-1,-1,-1,-1,-1,-1,-1,-1,-1,-1,-1,-1,-1,-1,-1,-1,-1,-1,-1],"loss_changes":[2.4568565E2,1.3644499E2,2.1267548E1,6.3470688E1,1.15070015E2,9.085342E0,4.6182556E0,4.5978035E1,2.2517761E1,4.1963493E1,7.405487E0,8.341222E0,4.875448E0,3.2621613E0,9.5047903E-1,4.111167E1,1.0197845E1,5.8590393E0,2.8239422E0,2.9987911E1,1.112907E2,4.562172E0,9.775974E0,4.8908043E0,2.7181797E0,1.2213128E0,2.856636E-2,7.323761E-1,0E0,1.470866E0,4.9139023E-2,4.9474E1,2.1961008E1,4.8890624E0,6.036377E-1,1.9474056E1,7.327606E0,2.9525332E0,5.727375E0,2.416681E1,2.888372E1,8.312091E1,1.6672905E1,5.0455475E-1,8.474655E-1,6.8420095E0,5.15955E-1,0E0,5.9318523E0,9.9966145E-1,0E0,5.882301E-1,8.924781E-1,5.0239205E-2,0E0,3.1040268E0,8.353424E-2,0E0,3.3205962E-1,0E0,0E0,0E0,0E0,0E0,0E0,0E0,0E0,0E0,0E0,0E0,0E0,0E0,0E0,0E0,0E0,0E0,0E0,0E0,0E0,0E0,0E0,0E0,0E0,0E0,0E0,0E0,0E0,0E0,0E0,0E0,0E0,0E0,0E0,0E0,0E0,0E0,0E0,0E0,0E0,0E0,0E0,0E0,0E0,0E0,0E0,0E0,0E0,0E0,0E0],"parents":[2147483647,0,0,1,1,2,2,3,3,4,4,5,5,6,6,7,7,8,8,9,9,10,10,11,11,12,12,13,13,14,14,15,15,16,16,17,17,18,18,19,19,20,20,21,21,22,22,23,23,24,24,25,25,26,26,27,27,29,29,30,30,31,31,32,32,33,33,34,34,35,35,36,36,37,37,38,38,39,39,40,40,41,41,42,42,43,43,44,44,45,45,46,46,48,48,49,49,51,51,52,52,53,53,55,55,56,56,58,58],"right_children":[2,4,6,8,10,12,14,16,18,20,22,24,26,28,30,32,34,36,38,40,42,44,46,48,50,52,54,56,-1,58,60,62,64,66,68,70,72,74,76,78,80,82,84,86,88,90,92,-1,94,96,-1,98,100,102,-1,104,106,-1,108,-1,-1,-1,-1,-1,-1,-1,-1,-1,-1,-1,-1,-1,-1,-1,-1,-1,-1,-1,-1,-1,-1,-1,-1,-1,-1,-1,-1,-1,-1,-1,-1,-1,-1,-1,-1,-1,-1,-1,-1,-1,-1,-1,-1,-1,-1,-1,-1,-1,-1],"split_conditions":[9.0923154E-1,-6.306868E-1,-4.1590855E-1,8.003564E-1,1.5046736E0,8.060298E-1,4.796357E-1,1.3101227E0,7.1254265E-1,-3.928767E-1,-2.5997126E-1,8.541735E-1,1.985041E0,8.060298E-1,1.116363E0,-3.7480438E-1,-5.912578E-1,-1.0630707E0,-3.2567248E-2,-2.2027406E-1,-4.1590855E-1,-1.4842747E-1,-4.6340668E-1,-1.5914874E0,-5.383076E-1,-1.1667445E0,-1.5270909E0,6.8750966E-1,-1.03889026E-1,2.047642E-1,1.574446E0,-8.638802E-1,8.2728875E-1,1.6366005E-1,1.6863407E0,-1.3873367E0,-1.4279427E-1,1.225559E-1,8.944006E-1,-4.1590855E-1,-7.8837526E-1,3.397371E-1,4.0116736E-1,-6.5111566E-1,-1.6056455E0,-5.0177056E-1,-1.1883395E0,-8.9622535E-2,-1.2297708E0,-1.1883395E0,3.7666477E-2,-1.3220268E0,-7.917832E-1,-1.6202604E0,-1.0722772E-1,2.9930377E-1,-3.5360512E-1,-4.194197E-2,8.5329646E-1,-6.270689E-2,-1.4642526E-2,-4.2903755E-2,1.5198623E-1,2.9152095E-2,-4.300258E-2,6.282207E-2,-5.143174E-2,-9.6105285E-2,-9.697708E-3,1.1969971E-1,5.0666793E-3,1.307842E-1,8.617968E-2,4.6784822E-2,7.246915E-4,3.0436797E-2,1.2112265E-1,3.0940963E-2,-9.0339504E-2,7.562395E-2,1.9702865E-2,1.0856398E-1,-7.4544846E-4,-8.363897E-2,-3.3863746E-2,-2.7766123E-2,-5.9946775E-2,-3.7351813E-2,-9.5338434E-2,-2.5629684E-2,1.3259655E-1,-5.684636E-2,-9.029525E-2,8.197903E-2,-1.0236794E-3,-4.541494E-2,-9.362065E-2,-3.735991E-3,6.388437E-2,-7.715297E-2,1.14816185E-2,-5.6860685E-2,-1.2452437E-2,-8.4302984E-2,-4.3192547E-2,-9.5411904E-2,-7.5962655E-2,1.5235982E-2,8.079984E-2],"split_indices":[48,18,2,20,3,3,40,40,40,28,48,6,48,3,2,2,3,2,8,17,2,20,2,2,2,2,2,2,0,2,2,14,0,2,2,2,2,2,2,2,48,24,8,2,2,2,0,0,2,0,0,2,2,2,0,2,11,0,2,0,0,0,0,0,0,0,0,0,0,0,0,0,0,0,0,0,0,0,0,0,0,0,0,0,0,0,0,0,0,0,0,0,0,0,0,0,0,0,0,0,0,0,0,0,0,0,0,0,0],"split_type":[0,0,0,0,0,0,0,0,0,0,0,0,0,0,0,0,0,0,0,0,0,0,0,0,0,0,0,0,0,0,0,0,0,0,0,0,0,0,0,0,0,0,0,0,0,0,0,0,0,0,0,0,0,0,0,0,0,0,0,0,0,0,0,0,0,0,0,0,0,0,0,0,0,0,0,0,0,0,0,0,0,0,0,0,0,0,0,0,0,0,0,0,0,0,0,0,0,0,0,0,0,0,0,0,0,0,0,0,0],"sum_hessian":[2.9660256E3,2.5705527E3,3.9547287E2,7.5493353E2,1.8156191E3,9.6202255E1,2.9927063E2,4.3746426E2,3.1746924E2,1.5502201E3,2.6539908E2,6.794997E1,2.8252289E1,2.918183E2,7.4523373E0,3.8735422E2,5.0110065E1,2.2939326E2,8.8075966E1,7.892993E2,7.609208E2,1.5725072E2,1.0814836E2,4.0439503E1,2.7510468E1,7.4474506E0,2.0804838E1,1.8128964E2,1.1052863E2,5.1586957E0,2.2936413E0,6.765249E1,3.1970172E2,1.3014206E1,3.709586E1,5.8900276E1,1.7049298E2,5.5018757E1,3.305721E1,6.654965E1,7.2274963E2,4.8528873E2,2.7563205E2,6.1887745E1,9.5362976E1,6.481521E1,4.333315E1,2.9908226E0,3.744868E1,2.5205097E1,2.305369E0,3.987797E0,3.4596534E0,2.1321282E0,1.867271E1,9.1780785E1,8.9508865E1,1.8841642E0,3.2745316E0,1.1802545E0,1.113387E0,1.690618E1,5.0746304E1,2.706803E2,4.902142E1,6.7420535E0,6.272152E0,3.6026253E1,1.0696098E0,3.1464754E1,2.7435522E1,7.476375E1,9.572923E1,2.4988865E1,3.0029892E1,2.3489773E1,9.567437E0,2.6906485E1,3.9643166E1,1.0801459E2,6.1473505E2,8.311197E1,4.0217676E2,1.507438E2,1.2488824E2,8.197729E0,5.3690018E1,4.367474E0,9.099551E1,6.2944576E1,1.8706322E0,1.4727174E1,2.8605974E1,1.1991797E1,2.5456882E1,1.736119E1,7.8439064E0,2.690314E0,1.2974832E0,1.9986426E0,1.4610108E0,1.0137323E0,1.1183959E0,6.0092045E1,3.1688742E1,5.1022728E1,3.8486137E1,2.1653237E0,1.1092077E0],"tree_param":{"num_deleted":"0","num_feature":"52","num_nodes":"109","size_leaf_vector":"1"}},{"base_weights":[-1.5385245E-2,8.5901104E-2,-7.0553225E-1,1.7373951E-1,-4.300949E-1,-5.49141E-1,-9.974864E-1,2.8016254E-2,4.3544248E-1,-4.9961377E-2,-7.283817E-1,-2.1171975E-1,-7.3477393E-1,-8.259174E-1,-1.0737338E-1,2.2932155E-1,-1.1170586E-1,2.2945623E-1,6.920738E-1,-4.9028382E-1,3.9675838E-1,-6.193384E-1,-1.0346261E0,-6.940378E-1,-5.9231073E-2,-8.367133E-1,-5.7917446E-1,-3.0304682E-2,-8.9340276E-1,4.746135E-1,-1.9510807E-2,5.8862075E-2,-3.19751E-1,4.0326843E-1,-9.698493E-2,2.9874903E-1,9.560744E-1,-2.1004984E-1,-8.9211464E-1,7.115536E-1,1.5354095E-1,-3.8867453E-1,-7.518011E-1,-1.0518825E-1,-8.72727E-3,-7.7987444E-1,-9.979131E-2,4.2268434E-1,-2.4772348E-1,-8.5766315E-1,-2.7324933E-1,-6.1387277E-1,-2.4994373E-1,-5.3601897E-1,8.186402E-2,-9.2852615E-2,-3.369808E-1,-8.30479E-2,5.1440448E-2,1.5342422E-2,-3.6666397E-2,6.822031E-2,-2.0508906E-2,4.7739502E-2,-4.8695095E-2,-6.448959E-3,5.3227615E-2,-5.3982127E-2,1.235099E-2,8.1852496E-2,-4.9989592E-2,1.12788E-1,3.8890563E-2,-6.714967E-2,2.3171475E-2,-9.14495E-2,-9.469304E-3,1.3884002E-1,-2.0199599E-2,-1.4444503E-2,5.7534076E-2,3.879385E-2,-7.401199E-2,-6.1270155E-2,-1.0507559E-1,-4.994466E-2,-1.034225E-1,3.9164986E-2,-4.1593034E-2,-6.636527E-2,8.428043E-2,-3.279976E-2,9.472772E-2,-4.381228E-2,-8.697068E-2,4.575959E-2,-7.7391125E-2,-5.1523954E-2,-7.8218244E-2,2.5822291E-2,-6.7577854E-2,-6.678928E-2,-1.3327685E-2,3.9292626E-2,-7.36078E-2],"categories":[],"categories_nodes":[],"categories_segments":[],"categories_sizes":[],"default_left":[0,0,0,0,0,0,0,0,0,0,0,0,0,0,0,0,0,0,0,0,0,0,0,0,0,0,0,0,0,0,0,0,0,0,0,0,0,0,0,0,0,0,0,0,0,0,0,0,0,0,0,0,0,0,0,0,0,0,0,0,0,0,0,0,0,0,0,0,0,0,0,0,0,0,0,0,0,0,0,0,0,0,0,0,0,0,0,0,0,0,0,0,0,0,0,0,0,0,0,0,0,0,0,0,0],"id":7,"left_children":[1,3,5,7,9,11,13,15,17,19,21,23,25,27,-1,29,31,33,35,37,39,41,43,45,47,49,51,53,55,57,59,61,63,65,67,69,71,73,75,77,79,81,83,-1,-1,85,87,89,91,93,95,97,99,101,-1,-1,103,-1,-1,-1,-1,-1,-1,-1,-1,-1,-1,-1,-1,-1,-1,-1,-1,-1,-1,-1,-1,-1,-1,-1,-1,-1,-1,-1,-1,-1,-1,-1,-1,-1,-1,-1,-1,-1,-1,-1,-1,-1,-1,-1,-1,-1,-1,-1,-1],"loss_changes":[2.0693544E2,1.1708478E2,1.6750534E1,8.4146416E1,4.2578545E1,1.5436531E1,8.25943E-1,3.99252E1,4.156183E1,3.290941E1,6.389038E0,6.559863E0,2.0561142E0,2.3684711E0,0E0,3.550358E1,2.9757215E1,2.4965387E1,3.6153015E1,9.294769E0,6.2541084E0,4.527092E0,7.8744125E-1,1.0171099E0,6.3983393E0,8.8150024E-1,6.079731E-1,2.3809123E0,4.9019623E-1,1.5637001E1,1.7444765E1,7.604476E1,5.0572926E1,1.7345139E1,1.5049429E1,5.9518936E1,1.9978043E1,1.0535074E1,5.2534676E-1,2.2509743E1,6.136565E0,1.6556133E1,3.4781113E0,0E0,0E0,8.108444E-1,7.6198953E-1,9.618534E0,5.148812E0,7.711029E-2,2.1310425E0,5.86565E-1,1.9146558E0,9.364605E-2,0E0,0E0,1.4572263E0,0E0,0E0,0E0,0E0,0E0,0E0,0E0,0E0,0E0,0E0,0E0,0E0,0E0,0E0,0E0,0E0,0E0,0E0,0E0,0E0,0E0,0E0,0E0,0E0,0E0,0E0,0E0,0E0,0E0,0E0,0E0,0E0,0E0,0E0,0E0,0E0,0E0,0E0,0E0,0E0,0E0,0E0,0E0,0E0,0E0,0E0,0E0,0E0],"parents":[2147483647,0,0,1,1,2,2,3,3,4,4,5,5,6,6,7,7,8,8,9,9,10,10,11,11,12,12,13,13,15,15,16,16,17,17,18,18,19,19,20,20,21,21,22,22,23,23,24,24,25,25,26,26,27,27,28,28,29,29,30,30,31,31,32,32,33,33,34,34,35,35,36,36,37,37,38,38,39,39,40,40,41,41,42,42,45,45,46,46,47,47,48,48,49,49,50,50,51,51,52,52,53,53,56,56],"right_children":[2,4,6,8,10,12,14,16,18,20,22,24,26,28,-1,30,32,34,36,38,40,42,44,46,48,50,52,54,56,58,60,62,64,66,68,70,72,74,76,78,80,82,84,-1,-1,86,88,90,92,94,96,98,100,102,-1,-1,104,-1,-1,-1,-1,-1,-1,-1,-1,-1,-1,-1,-1,-1,-1,-1,-1,-1,-1,-1,-1,-1,-1,-1,-1,-1,-1,-1,-1,-1,-1,-1,-1,-1,-1,-1,-1,-1,-1,-1,-1,-1,-1,-1,-1,-1,-1,-1,-1],"split_conditions":[9.0923154E-1,1.5046736E0,8.060298E-1,5.335399E-1,-9.4203484E-1,-1.6928361E-1,1.985041E0,1.4692074E-1,7.10841E-1,2.5897393E-1,3.107884E-1,1.2829E0,-3.5360512E-1,-1.1667445E0,-1.0737338E-1,-1.208709E-1,-4.0266386E-1,6.363994E-2,-4.6340668E-1,-4.6340668E-1,-4.1590855E-1,-4.1590855E-1,1.6863407E0,-5.8717585E-1,-1.2297708E0,1.6863407E0,1.5607446E0,-1.3220268E0,1.5886041E0,-6.426246E-1,6.312201E-2,5.460263E-1,-5.2570426E-1,-8.5182154E-1,-1.208709E-1,-8.359614E-2,6.744718E-1,-1.0941423E0,9.015521E-1,1.2952609E0,1.2952609E0,5.991315E-1,6.668448E-1,-1.0518825E-1,-8.72727E-3,-6.411859E-1,-5.1318836E-1,-1.5407922E0,-1.975998E-1,-1.0077668E-1,-5.912578E-1,1.3410304E0,1.6461499E0,-1.4384886E0,8.186402E-2,-9.2852615E-2,1.6461499E0,-8.30479E-2,5.1440448E-2,1.5342422E-2,-3.6666397E-2,6.822031E-2,-2.0508906E-2,4.7739502E-2,-4.8695095E-2,-6.448959E-3,5.3227615E-2,-5.3982127E-2,1.235099E-2,8.1852496E-2,-4.9989592E-2,1.12788E-1,3.8890563E-2,-6.714967E-2,2.3171475E-2,-9.14495E-2,-9.469304E-3,1.3884002E-1,-2.0199599E-2,-1.4444503E-2,5.7534076E-2,3.879385E-2,-7.401199E-2,-6.1270155E-2,-1.0507559E-1,-4.994466E-2,-1.034225E-1,3.9164986E-2,-4.1593034E-2,-6.636527E-2,8.428043E-2,-3.279976E-2,9.472772E-2,-4.381228E-2,-8.697068E-2,4.575959E-2,-7.7391125E-2,-5.1523954E-2,-7.8218244E-2,2.5822291E-2,-6.7577854E-2,-6.678928E-2,-1.3327685E-2,3.9292626E-2,-7.36078E-2],"split_indices":[48,3,3,20,12,2,48,25,11,22,10,48,11,2,0,1,2,2,2,2,2,2,2,2,2,2,2,2,2,11,24,24,6,1,1,10,40,12,9,13,13,21,13,0,0,5,2,2,2,2,3,1,2,2,0,0,2,0,0,0,0,0,0,0,0,0,0,0,0,0,0,0,0,0,0,0,0,0,0,0,0,0,0,0,0,0,0,0,0,0,0,0,0,0,0,0,0,0,0,0,0,0,0,0,0],"split_type":[0,0,0,0,0,0,0,0,0,0,0,0,0,0,0,0,0,0,0,0,0,0,0,0,0,0,0,0,0,0,0,0,0,0,0,0,0,0,0,0,0,0,0,0,0,0,0,0,0,0,0,0,0,0,0,0,0,0,0,0,0,0,0,0,0,0,0,0,0,0,0,0,0,0,0,0,0,0,0,0,0,0,0,0,0,0,0,0,0,0,0,0,0,0,0,0,0,0,0,0,0,0,0,0,0],"sum_hessian":[2.9584783E3,2.5806206E3,3.7785773E2,2.2057903E3,3.7483014E2,2.4792986E2,1.2992787E2,1.4175612E3,7.882292E2,1.6531807E2,2.0951207E2,8.875047E1,1.5917938E2,4.3616257E1,8.6311615E1,5.805253E2,8.370358E2,4.383111E2,3.4991812E2,8.3206055E1,8.2112015E1,1.5672865E2,5.2783424E1,2.0465902E1,6.828457E1,9.352809E1,6.565128E1,3.523641E0,4.0092617E1,2.9188547E2,2.8863983E2,4.6033914E2,3.7669672E2,2.8586703E2,1.5244405E2,1.413932E2,2.0852492E2,4.9917015E1,3.3289043E1,3.495035E1,4.7161663E1,5.86072E1,9.8121445E1,5.1730793E1,1.05263E0,1.7609852E1,2.856051E0,1.8849617E1,4.943495E1,8.967192E1,3.8561711E0,5.8609715E1,7.0415654E0,2.4392138E0,1.0844275E0,3.708305E1,3.0095649E0,8.048073E0,2.838374E2,1.9303642E2,9.5603424E1,1.3647003E2,3.238691E2,6.4990654E1,3.1170605E2,6.1906315E1,2.2396072E2,5.019182E1,1.0225222E2,8.5635086E1,5.575811E1,1.592858E2,4.9239113E1,2.4160276E1,2.5756739E1,3.2237453E1,1.0515897E0,1.9777477E1,1.5172873E1,2.8022413E1,1.913925E1,1.822666E1,4.0380543E1,6.904517E1,2.9076275E1,9.785123E0,7.8247285E0,1.0245401E0,1.8315109E0,5.0951123E0,1.3754505E1,4.7003048E1,2.431904E0,3.5453954E0,8.6126526E1,1.6026736E0,2.2534976E0,3.9514572E1,1.9095144E1,3.3898826E0,3.6516829E0,1.3415675E0,1.0976461E0,1.0693316E0,1.9402332E0],"tree_param":{"num_deleted":"0","num_feature":"52","num_nodes":"105","size_leaf_vector":"1"}},{"base_weights":[-1.5221674E-2,7.666367E-2,-6.6380507E-1,1.5428731E-1,-4.0166876E-1,-3.3024374E-1,-8.125643E-1,2.8214276E-2,3.7966806E-1,-7.6175946E-1,-1.5702726E-1,-1.145362E-1,-8.9095116E-1,-8.35786E-1,1.3236266E-2,2.2767079E-1,-1.0747996E-1,2.2172262E-1,5.811829E-1,-4.523823E-1,-8.9992476E-1,4.129023E-1,-3.8619092E-1,-9.115338E-2,-2.282437E-2,-5.554694E-1,-1.008573E0,-7.429061E-1,-9.859891E-1,3.4271157E-1,-5.1963832E-2,2.9395893E-1,-5.806326E-1,6.240327E-2,-3.181424E-1,4.093324E-1,-2.6905138E-2,8.185544E-1,2.8501567E-1,-5.910646E-1,-2.8793207E-1,-5.7949656E-1,-9.709819E-1,8.8423E-1,-1.17191866E-1,-1.0021789E-1,-3.0345768E-1,5.044711E-1,-1.4766483E-1,-9.850453E-2,-8.040793E-2,-4.3173593E-1,-1.04769625E-1,-6.430795E-1,-8.273891E-1,-8.1128997E-1,-1.0610347E-1,-3.0108958E-2,6.692569E-1,-5.820686E-3,4.7479466E-2,-1.0322968E-1,2.2033982E-2,6.086543E-2,-1.7137716E-2,7.884579E-2,-3.9045986E-2,8.717309E-2,2.7832344E-2,1.0517511E-2,-8.543143E-2,4.721469E-2,1.0521565E-1,-8.294331E-2,5.1355816E-2,-2.8069539E-2,-7.769044E-2,-4.32405E-2,-4.028168E-4,-9.517993E-2,2.0665374E-1,-9.816002E-2,-1.46482065E-2,5.1846266E-2,1.5523356E-1,-9.089966E-2,-1.3852128E-3,-2.0547299E-2,-5.8857877E-2,-1.2860608E-2,1.3831487E-1,-6.4961635E-2,1.523459E-2,-3.3222698E-2,3.937347E-2,-5.7566047E-2,-7.093201E-3,-8.411398E-2,-3.0801876E-2,-8.718956E-2,-5.733226E-2,-8.540266E-2,-2.4333071E-2,9.008377E-2,2.764234E-2],"categories":[],"categories_nodes":[],"categories_segments":[],"categories_sizes":[],"default_left":[0,0,0,0,0,0,0,0,0,0,0,0,0,0,0,0,0,0,0,0,0,0,0,0,0,0,0,0,0,0,0,0,0,0,0,0,0,0,0,0,0,0,0,0,0,0,0,0,0,0,0,0,0,0,0,0,0,0,0,0,0,0,0,0,0,0,0,0,0,0,0,0,0,0,0,0,0,0,0,0,0,0,0,0,0,0,0,0,0,0,0,0,0,0,0,0,0,0,0,0,0,0,0,0,0],"id":8,"left_children":[1,3,5,7,9,11,13,15,17,19,21,23,25,27,29,31,33,35,37,39,41,43,45,-1,47,49,51,53,55,57,-1,59,61,63,65,67,69,71,73,75,77,79,81,83,85,-1,87,89,91,93,-1,95,-1,97,99,101,-1,-1,103,-1,-1,-1,-1,-1,-1,-1,-1,-1,-1,-1,-1,-1,-1,-1,-1,-1,-1,-1,-1,-1,-1,-1,-1,-1,-1,-1,-1,-1,-1,-1,-1,-1,-1,-1,-1,-1,-1,-1,-1,-1,-1,-1,-1,-1,-1],"loss_changes":[1.742472E2,9.515788E1,1.7734863E1,6.2623077E1,3.1406498E1,1.36361475E1,4.8096313E0,3.8312206E1,2.503595E1,5.770256E0,2.8155968E1,6.058951E0,6.791954E-1,2.663208E0,1.5525345E0,3.087678E1,3.017393E1,2.0761206E1,2.4146492E1,8.9317703E-1,1.6889191E0,1.5583314E1,7.513569E0,0E0,5.052338E0,1.0999823E0,4.4841766E-2,7.705612E-1,3.1842804E-1,1.3451793E0,0E0,3.3799812E1,1.6062738E1,5.977579E1,3.0422329E1,1.51200485E1,2.1100164E1,1.5037537E1,4.011321E1,1.1861067E0,9.5316243E-1,2.2092508E1,5.518799E-1,7.2381897E0,2.445697E0,0E0,3.6973076E0,8.356424E0,9.4230585E0,6.8267757E-1,0E0,1.2015492E-1,0E0,4.73724E0,4.066429E-1,5.5134773E-1,0E0,0E0,1.07569575E-1,0E0,0E0,0E0,0E0,0E0,0E0,0E0,0E0,0E0,0E0,0E0,0E0,0E0,0E0,0E0,0E0,0E0,0E0,0E0,0E0,0E0,0E0,0E0,0E0,0E0,0E0,0E0,0E0,0E0,0E0,0E0,0E0,0E0,0E0,0E0,0E0,0E0,0E0,0E0,0E0,0E0,0E0,0E0,0E0,0E0,0E0],"parents":[2147483647,0,0,1,1,2,2,3,3,4,4,5,5,6,6,7,7,8,8,9,9,10,10,11,11,12,12,13,13,14,14,15,15,16,16,17,17,18,18,19,19,20,20,21,21,22,22,24,24,25,25,26,26,27,27,28,28,29,29,31,31,32,32,33,33,34,34,35,35,36,36,37,37,38,38,39,39,40,40,41,41,42,42,43,43,44,44,46,46,47,47,48,48,49,49,51,51,53,53,54,54,55,55,58,58],"right_children":[2,4,6,8,10,12,14,16,18,20,22,24,26,28,30,32,34,36,38,40,42,44,46,-1,48,50,52,54,56,58,-1,60,62,64,66,68,70,72,74,76,78,80,82,84,86,-1,88,90,92,94,-1,96,-1,98,100,102,-1,-1,104,-1,-1,-1,-1,-1,-1,-1,-1,-1,-1,-1,-1,-1,-1,-1,-1,-1,-1,-1,-1,-1,-1,-1,-1,-1,-1,-1,-1,-1,-1,-1,-1,-1,-1,-1,-1,-1,-1,-1,-1,-1,-1,-1,-1,-1,-1],"split_conditions":[9.0923154E-1,1.5046736E0,-2.935095E-1,5.335399E-1,-2.9222897E-1,8.060298E-1,4.796357E-1,1.4692074E-1,7.10841E-1,-8.7067366E-1,-8.4156066E-2,-1.5407922E0,1.985041E0,8.060298E-1,1.116363E0,8.442085E-1,-4.0266386E-1,-3.318734E-1,-7.019302E-1,-1.1394117E-2,-1.1128523E0,-4.1590855E-1,-1.1918582E0,-9.115338E-2,-1.3220268E0,-1.1667445E0,-1.5270909E0,6.8750966E-1,1.985041E0,2.047642E-1,-5.1963832E-2,2.077612E-2,1.3384619E0,5.460263E-1,-8.118108E-1,5.991315E-1,-1.8857622E-1,-6.7532146E-1,-4.5383835E-1,2.3034012E-1,9.492061E-1,-1.1394117E-2,1.7155703E0,-7.392612E-1,-2.3824725E-1,-1.0021789E-1,5.198961E-1,-1.3873367E0,-8.835825E-1,-1.281836E0,-8.040793E-2,-1.6056455E0,-1.04769625E-1,2.9930377E-1,1.5607446E0,1.5886041E0,-1.0610347E-1,-3.0108958E-2,5.198961E-1,-5.820686E-3,4.7479466E-2,-1.0322968E-1,2.2033982E-2,6.086543E-2,-1.7137716E-2,7.884579E-2,-3.9045986E-2,8.717309E-2,2.7832344E-2,1.0517511E-2,-8.543143E-2,4.721469E-2,1.0521565E-1,-8.294331E-2,5.1355816E-2,-2.8069539E-2,-7.769044E-2,-4.32405E-2,-4.028168E-4,-9.517993E-2,2.0665374E-1,-9.816002E-2,-1.46482065E-2,5.1846266E-2,1.5523356E-1,-9.089966E-2,-1.3852128E-3,-2.0547299E-2,-5.8857877E-2,-1.2860608E-2,1.3831487E-1,-6.4961635E-2,1.523459E-2,-3.3222698E-2,3.937347E-2,-5.7566047E-2,-7.093201E-3,-8.411398E-2,-3.0801876E-2,-8.718956E-2,-5.733226E-2,-8.540266E-2,-2.4333071E-2,9.008377E-2,2.764234E-2],"split_indices":[48,3,2,20,47,3,40,25,11,6,23,2,48,3,2,8,2,2,40,4,2,2,14,0,2,2,2,2,48,2,0,8,8,24,8,21,16,2,40,2,2,4,2,2,2,0,2,2,2,2,0,2,0,2,2,2,0,0,2,0,0,0,0,0,0,0,0,0,0,0,0,0,0,0,0,0,0,0,0,0,0,0,0,0,0,0,0,0,0,0,0,0,0,0,0,0,0,0,0,0,0,0,0,0,0],"split_type":[0,0,0,0,0,0,0,0,0,0,0,0,0,0,0,0,0,0,0,0,0,0,0,0,0,0,0,0,0,0,0,0,0,0,0,0,0,0,0,0,0,0,0,0,0,0,0,0,0,0,0,0,0,0,0,0,0,0,0,0,0,0,0,0,0,0,0,0,0,0,0,0,0,0,0,0,0,0,0,0,0,0,0,0,0,0,0,0,0,0,0,0,0,0,0,0,0,0,0,0,0,0,0,0,0],"sum_hessian":[2.9219868E3,2.5601677E3,3.6181924E2,2.203295E3,3.568726E2,1.12586845E2,2.492324E2,1.4136534E3,7.8964154E2,1.4351598E2,2.1335663E2,8.217709E1,3.0409754E1,2.4240387E2,6.8285365E0,5.7207886E2,8.4157465E2,4.4385358E2,3.4578796E2,4.5625782E1,9.789019E1,6.0956406E1,1.5240022E2,7.5579143E0,7.461918E1,9.379627E0,2.1030127E1,1.5345755E2,8.894631E1,4.4400964E0,2.3884401E0,5.2930725E2,4.2771618E1,4.662684E2,3.7530624E2,2.5260004E2,1.9125354E2,1.909677E2,1.5482025E2,2.3344759E1,2.2281021E1,1.9429457E1,7.846073E1,3.1913122E1,2.9043283E1,1.6729301E1,1.3567091E2,1.3702453E1,6.0916725E1,3.7968795E0,5.582748E0,2.1001775E0,1.8929949E1,7.428871E1,7.9168846E1,3.027637E1,5.866994E1,1.5204347E0,2.9196615E0,1.7981242E2,3.494948E2,2.7164751E1,1.5606865E1,1.3926305E2,3.2700537E2,2.2414667E1,3.5289157E2,5.4519276E1,1.9808076E2,1.6567891E2,2.5574625E1,7.813009E1,1.12837616E2,2.589899E1,1.2892126E2,9.683258E0,1.36615E1,1.441994E1,7.861082E0,1.7594208E1,1.8352507E0,7.7275E1,1.1857293E0,2.1770473E1,1.0142648E1,2.4528651E0,2.6590418E1,1.0225173E2,3.341918E1,8.460439E0,5.2420135E0,2.2352755E1,3.8563972E1,2.794893E0,1.0019865E0,1.0756192E0,1.0245582E0,4.5740376E1,2.8548334E1,6.529835E1,1.3870496E1,2.7689198E1,2.5871727E0,1.0232575E0,1.896404E0],"tree_param":{"num_deleted":"0","num_feature":"52","num_nodes":"105","size_leaf_vector":"1"}},{"base_weights":[-2.4890525E-2,5.3363554E-2,-6.1610025E-1,1.2050912E-1,-3.6835185E-1,-4.6282077E-1,-9.303281E-1,1.4580593E-2,3.0553368E-1,-6.829867E-1,-4.523214E-2,-1.2536435E-1,-6.6535884E-1,-7.141267E-1,-1.0325155E0,1.8041581E-1,-1.02599554E-1,1.4720623E-1,5.016805E-1,-7.772956E-1,-2.034995E-1,-4.650645E-1,3.9205903E-1,-1.6913797E-1,1.0599853E0,-7.48388E-1,-5.2939016E-1,2.0789428E-2,-7.8416157E-1,-1.0454829E0,-2.3588547E-2,-7.3797584E-1,2.2001182E-1,5.9435796E-2,-3.095748E-1,-4.692863E-2,2.8882784E-1,2.1867588E-1,6.830696E-1,-9.684039E-1,-6.061199E-1,-7.0094116E-2,-1.1320814E-1,-2.1724615E-1,-7.9510856E-1,6.477227E-1,1.5536998E-1,-5.238736E-1,-1.8205572E-3,1.7132783E-1,-1.2003167E-2,-7.834507E-1,-4.0403286E-1,-4.630374E-1,-7.5840473E-1,-2.3927758E-2,2.2030732E-2,-3.4357154E-1,-8.1347466E-2,-4.742649E-2,-1.05783045E-1,2.9905526E-2,-1.08632766E-1,2.9894263E-2,-1.7199947E-2,5.4375034E-2,-1.6617378E-2,-4.9920306E-2,1.5149062E-2,9.941719E-3,-7.714465E-2,4.9044915E-2,4.926454E-3,6.360429E-2,-4.0241927E-2,4.8546735E-2,1.0188141E-1,-3.8699374E-2,-9.916235E-2,-3.855096E-2,-8.6246766E-2,2.6971003E-2,-2.7160743E-2,-9.749778E-2,-7.865835E-3,-9.76803E-2,-4.6703935E-2,8.513613E-2,-7.260724E-2,-9.134526E-3,5.3065497E-2,-3.0129448E-2,-8.3151005E-2,-2.0149684E-2,2.3766233E-2,-5.772257E-2,-8.736449E-2,-2.810571E-3,-5.458271E-2,-5.3460103E-2,1.7923644E-2,-9.297453E-2,-4.8002794E-2,-7.0965044E-2,2.3297694E-2],"categories":[0,1],"categories_nodes":[32],"categories_segments":[0],"categories_sizes":[2],"default_left":[0,0,0,0,0,0,0,0,0,0,0,0,0,0,0,0,0,0,0,0,0,0,0,0,0,0,0,0,0,0,0,0,1,0,0,0,0,0,0,0,0,0,0,0,0,0,0,0,0,0,0,0,0,0,0,0,0,0,0,0,0,0,0,0,0,0,0,0,0,0,0,0,0,0,0,0,0,0,0,0,0,0,0,0,0,0,0,0,0,0,0,0,0,0,0,0,0,0,0,0,0,0,0,0,0],"id":9,"left_children":[1,3,5,7,9,11,13,15,17,19,21,23,25,27,29,31,33,35,37,39,41,43,45,47,49,51,53,55,57,59,-1,61,63,65,67,69,71,73,75,77,79,-1,81,83,85,87,89,91,93,-1,-1,95,97,99,101,-1,-1,103,-1,-1,-1,-1,-1,-1,-1,-1,-1,-1,-1,-1,-1,-1,-1,-1,-1,-1,-1,-1,-1,-1,-1,-1,-1,-1,-1,-1,-1,-1,-1,-1,-1,-1,-1,-1,-1,-1,-1,-1,-1,-1,-1,-1,-1,-1,-1],"loss_changes":[1.3424046E2,7.261082E1,1.5905167E1,4.3338978E1,3.577918E1,1.5633442E1,1.6975479E0,2.736757E1,2.4928535E1,7.908638E0,3.2282185E1,4.718469E0,1.2235107E0,2.0038147E0,5.033035E-1,2.1365736E1,2.7696873E1,1.23007E1,1.8288818E1,4.2779922E0,1.2984E0,7.1607475E0,5.1146584E0,5.0576754E0,2.7135043E0,7.298012E-1,5.273304E-1,2.7759153E-1,1.7617226E-1,7.6293945E-5,0E0,9.114003E0,1.7370989E1,5.0761997E1,3.1774471E1,2.0155134E1,1.2463718E1,3.7004852E1,1.3996002E1,5.4226685E-1,4.2552013E0,0E0,1.720315E0,5.4454536E0,1.8134212E0,1.2120724E1,4.3139143E0,1.619636E0,2.8652248E0,0E0,0E0,9.3883896E-1,5.21608E-1,2.2741508E0,9.837723E-2,0E0,0E0,9.952369E-1,0E0,0E0,0E0,0E0,0E0,0E0,0E0,0E0,0E0,0E0,0E0,0E0,0E0,0E0,0E0,0E0,0E0,0E0,0E0,0E0,0E0,0E0,0E0,0E0,0E0,0E0,0E0,0E0,0E0,0E0,0E0,0E0,0E0,0E0,0E0,0E0,0E0,0E0,0E0,0E0,0E0,0E0,0E0,0E0,0E0,0E0,0E0],"parents":[2147483647,0,0,1,1,2,2,3,3,4,4,5,5,6,6,7,7,8,8,9,9,10,10,11,11,12,12,13,13,14,14,15,15,16,16,17,17,18,18,19,19,20,20,21,21,22,22,23,23,24,24,25,25,26,26,27,27,28,28,29,29,31,31,32,32,33,33,34,34,35,35,36,36,37,37,38,38,39,39,40,40,42,42,43,43,44,44,45,45,46,46,47,47,48,48,51,51,52,52,53,53,54,54,57,57],"right_children":[2,4,6,8,10,12,14,16,18,20,22,24,26,28,30,32,34,36,38,40,42,44,46,48,50,52,54,56,58,60,-1,62,64,66,68,70,72,74,76,78,80,-1,82,84,86,88,90,92,94,-1,-1,96,98,100,102,-1,-1,104,-1,-1,-1,-1,-1,-1,-1,-1,-1,-1,-1,-1,-1,-1,-1,-1,-1,-1,-1,-1,-1,-1,-1,-1,-1,-1,-1,-1,-1,-1,-1,-1,-1,-1,-1,-1,-1,-1,-1,-1,-1,-1,-1,-1,-1,-1,-1],"split_conditions":[9.0923154E-1,1.5046736E0,8.060298E-1,5.335399E-1,7.10841E-1,-1.6928361E-1,1.985041E0,1.4692074E-1,7.10841E-1,5.367324E-1,2.5897393E-1,-1.975998E-1,-3.5360512E-1,-1.2297708E0,1.6863407E0,-6.426246E-1,-4.0266386E-1,-1.208709E-1,-4.6340668E-1,-5.143315E-1,-1.2051083E0,-4.1590855E-1,-3.7480438E-1,-4.6205086E-1,6.2419385E-1,1.5607446E0,1.3945012E0,-1.4384886E0,-4.3417707E-1,-1.5270909E0,-2.3588547E-2,-4.1590855E-1,1E-45,5.460263E-1,8.503201E-1,-1.1394117E-2,5.991315E-1,-8.359614E-2,1.3410304E0,-1.6056455E0,3.1300515E-1,-7.0094116E-2,-1.82985E-1,-1.1552678E0,-1.1309315E-1,9.1622576E-2,9.1622576E-2,-4.1590855E-1,-8.835825E-1,1.7132783E-1,-1.2003167E-2,3.719211E-1,1.6315352E0,1.2784961E0,1.5886041E0,-2.3927758E-2,2.2030732E-2,-8.310605E-1,-8.1347466E-2,-4.742649E-2,-1.05783045E-1,2.9905526E-2,-1.08632766E-1,2.9894263E-2,-1.7199947E-2,5.4375034E-2,-1.6617378E-2,-4.9920306E-2,1.5149062E-2,9.941719E-3,-7.714465E-2,4.9044915E-2,4.926454E-3,6.360429E-2,-4.0241927E-2,4.8546735E-2,1.0188141E-1,-3.8699374E-2,-9.916235E-2,-3.855096E-2,-8.6246766E-2,2.6971003E-2,-2.7160743E-2,-9.749778E-2,-7.865835E-3,-9.76803E-2,-4.6703935E-2,8.513613E-2,-7.260724E-2,-9.134526E-3,5.3065497E-2,-3.0129448E-2,-8.3151005E-2,-2.0149684E-2,2.3766233E-2,-5.772257E-2,-8.736449E-2,-2.810571E-3,-5.458271E-2,-5.3460103E-2,1.7923644E-2,-9.297453E-2,-4.8002794E-2,-7.0965044E-2,2.3297694E-2],"split_indices":[48,3,3,20,11,2,48,25,11,46,22,2,11,2,2,11,2,1,2,47,2,2,2,15,6,2,2,2,2,2,0,2,51,24,44,4,21,10,1,2,2,0,2,12,9,9,9,2,2,0,0,2,2,2,2,0,0,2,0,0,0,0,0,0,0,0,0,0,0,0,0,0,0,0,0,0,0,0,0,0,0,0,0,0,0,0,0,0,0,0,0,0,0,0,0,0,0,0,0,0,0,0,0,0,0],"split_type":[0,0,0,0,0,0,0,0,0,0,0,0,0,0,0,0,0,0,0,0,0,0,0,0,0,0,0,0,0,0,0,0,1,0,0,0,0,0,0,0,0,0,0,0,0,0,0,0,0,0,0,0,0,0,0,0,0,0,0,0,0,0,0,0,0,0,0,0,0,0,0,0,0,0,0,0,0,0,0,0,0,0,0,0,0,0,0,0,0,0,0,0,0,0,0,0,0,0,0,0,0,0,0,0,0],"sum_hessian":[2.8998713E3,2.5617068E3,3.3816452E2,2.21047E3,3.5123697E2,2.2895416E2,1.09210365E2,1.4063807E3,8.040892E2,1.773907E2,1.7384628E2,8.6482056E1,1.424721E2,3.761516E1,7.15952E1,5.820767E2,8.2430396E2,4.4590793E2,3.581812E2,1.4771582E2,2.967488E1,8.8661285E1,8.5185E1,8.422889E1,2.253168E0,8.565986E1,5.6812252E1,3.3338895E0,3.4281273E1,7.014108E1,1.4541215E0,2.3329662E1,5.587471E2,4.627457E2,3.615583E2,1.8836534E2,2.5754257E2,1.407647E2,2.1741653E2,6.759374E1,8.012207E1,3.5198557E0,2.6155024E1,5.158567E1,3.7075615E1,4.0116203E1,4.5068798E1,2.6312273E1,5.791662E1,1.1593866E0,1.0937814E0,7.658658E1,9.073274E0,4.6392696E1,1.0419555E1,1.360817E0,1.9730726E0,2.9320378E0,3.1349234E1,2.317964E0,6.782312E1,5.9017816E0,1.7427881E1,4.6529758E2,9.3449486E1,1.4660965E2,3.1613605E2,2.5613263E2,1.0542564E2,1.5742896E2,3.093639E1,1.39277E2,1.1826559E2,8.4175735E1,5.6588955E1,1.3840454E2,7.9011986E1,3.274253E0,6.431949E1,4.4408463E1,3.571361E1,7.4478035E0,1.870722E1,7.0429735E0,4.4542698E1,2.258818E1,1.4487434E1,3.52686E1,4.847603E0,2.7648834E1,1.7419962E1,1.6415104E1,9.897168E0,3.1669668E1,2.6246948E1,2.5555298E1,5.1031284E1,2.8131692E0,6.2601047E0,4.1892574E1,4.5001216E0,5.0013494E0,5.418205E0,1.652148E0,1.2798898E0],"tree_param":{"num_deleted":"0","num_feature":"52","num_nodes":"105","size_leaf_vector":"1"}},{"base_weights":[-3.2753723E-3,7.639525E-2,-6.2420475E-1,1.3847432E-1,-3.353404E-1,-4.7811475E-1,-9.3176705E-1,2.64605E-1,2.2899237E-2,-5.0865542E-2,-5.8859193E-1,-1.7477779E-1,-6.351839E-1,-7.0896965E-1,-1.0351276E0,3.829021E-1,8.219246E-2,1.8607628E-1,-9.892422E-2,-4.636531E-1,3.0736792E-1,-4.7131214E-1,-9.412191E-1,1.32239275E-2,-5.235085E-1,-6.6789556E-1,4.074121E-2,4.247051E-2,-7.534705E-1,-1.04908064E-1,-1.3571662E-2,2.3285691E-1,5.819925E-1,3.1486136E-1,-8.1328005E-2,-1.3760947E-1,3.7570179E-1,8.042875E-2,-3.9609298E-1,-2.3270328E-1,-8.201576E-1,-2.3782695E-2,3.9533466E-1,-3.5506836E-1,-6.485926E-1,-9.60795E-1,-1.2138947E-2,3.5321036E-1,-1.7918503E-1,-6.490275E-1,-2.3498903E-1,-6.9815296E-1,-3.0926773E-1,2.9962483E-1,-4.4500262E-1,-3.2559863E-1,-8.168882E-1,4.80525E-2,1.1740564E-2,9.168679E-2,3.4745563E-2,1.4006476E-1,2.7709512E-2,-8.677124E-2,1.2037886E-2,-7.12826E-2,1.5005928E-2,6.3270454E-6,6.448767E-2,5.1050898E-2,-1.0291911E-2,-6.112344E-2,-1.4236028E-2,3.0962562E-2,-5.011327E-2,-9.166195E-2,-4.0802713E-2,1.8826352E-2,-7.352889E-2,8.3656214E-2,2.1053918E-2,-2.0010373E-2,-7.1361184E-2,-1.5873743E-2,-8.1677556E-2,-1.4125521E-2,-9.816166E-2,-2.1784019E-2,4.0678594E-2,-7.083435E-2,-1.2976976E-2,-3.651681E-2,-7.870627E-2,2.074132E-2,-3.7797432E-2,-5.844586E-2,-8.1595786E-2,6.5641017E-3,-5.0297167E-2,-1.9820263E-3,8.628714E-2,-5.768354E-2,-9.061667E-3,-7.327241E-2,-1.7368755E-3,-9.119202E-2,-4.0913697E-2],"categories":[0,1,3],"categories_nodes":[7],"categories_segments":[0],"categories_sizes":[3],"default_left":[0,0,0,0,0,0,0,1,0,0,0,0,0,0,0,0,0,0,0,0,0,0,0,0,0,0,0,0,0,0,0,0,0,0,0,0,0,0,0,0,0,0,0,0,0,0,0,0,0,0,0,0,0,0,0,0,0,0,0,0,0,0,0,0,0,0,0,0,0,0,0,0,0,0,0,0,0,0,0,0,0,0,0,0,0,0,0,0,0,0,0,0,0,0,0,0,0,0,0,0,0,0,0,0,0,0,0],"id":10,"left_children":[1,3,5,7,9,11,13,15,17,19,21,23,25,27,29,31,33,35,37,39,41,43,45,47,49,51,53,-1,55,-1,-1,57,59,61,63,65,67,69,71,73,75,77,79,81,83,85,-1,87,89,91,93,95,97,99,101,103,105,-1,-1,-1,-1,-1,-1,-1,-1,-1,-1,-1,-1,-1,-1,-1,-1,-1,-1,-1,-1,-1,-1,-1,-1,-1,-1,-1,-1,-1,-1,-1,-1,-1,-1,-1,-1,-1,-1,-1,-1,-1,-1,-1,-1,-1,-1,-1,-1,-1,-1],"loss_changes":[1.4173486E2,6.495147E1,1.419371E1,3.217118E1,2.3959969E1,1.0511055E1,1.6580124E0,2.2742073E1,2.2937637E1,2.3495192E1,6.8378944E0,5.0838623E0,3.2665443E0,2.1406918E0,7.2073364E-1,1.8980461E1,1.5869768E1,3.032233E1,3.5249847E1,5.883215E0,2.489829E0,2.533781E0,5.725212E-1,3.4184082E0,8.3066607E-1,1.301075E0,1.1022979E0,0E0,6.8609047E-1,0E0,0E0,1.0425201E1,2.1228676E1,6.6684723E0,3.9023205E1,3.0374874E1,3.1471848E1,3.2611748E1,1.3498417E1,6.875903E0,7.6325417E-1,2.9770775E0,5.314123E0,4.481002E0,4.1468716E0,5.745239E-1,0E0,6.6600347E-1,7.818632E-1,4.3162107E-1,6.981818E-1,1.239212E0,9.5330656E-1,1.029026E0,9.1686964E-2,7.6428276E-1,7.8530884E-1,0E0,0E0,0E0,0E0,0E0,0E0,0E0,0E0,0E0,0E0,0E0,0E0,0E0,0E0,0E0,0E0,0E0,0E0,0E0,0E0,0E0,0E0,0E0,0E0,0E0,0E0,0E0,0E0,0E0,0E0,0E0,0E0,0E0,0E0,0E0,0E0,0E0,0E0,0E0,0E0,0E0,0E0,0E0,0E0,0E0,0E0,0E0,0E0,0E0,0E0],"parents":[2147483647,0,0,1,1,2,2,3,3,4,4,5,5,6,6,7,7,8,8,9,9,10,10,11,11,12,12,13,13,14,14,15,15,16,16,17,17,18,18,19,19,20,20,21,21,22,22,23,23,24,24,25,25,26,26,28,28,31,31,32,32,33,33,34,34,35,35,36,36,37,37,38,38,39,39,40,40,41,41,42,42,43,43,44,44,45,45,47,47,48,48,49,49,50,50,51,51,52,52,53,53,54,54,55,55,56,56],"right_children":[2,4,6,8,10,12,14,16,18,20,22,24,26,28,30,32,34,36,38,40,42,44,46,48,50,52,54,-1,56,-1,-1,58,60,62,64,66,68,70,72,74,76,78,80,82,84,86,-1,88,90,92,94,96,98,100,102,104,106,-1,-1,-1,-1,-1,-1,-1,-1,-1,-1,-1,-1,-1,-1,-1,-1,-1,-1,-1,-1,-1,-1,-1,-1,-1,-1,-1,-1,-1,-1,-1,-1,-1,-1,-1,-1,-1,-1,-1,-1,-1,-1,-1,-1,-1,-1,-1,-1,-1,-1],"split_conditions":[9.0923154E-1,1.5046736E0,8.060298E-1,1.4692074E-1,-9.4203484E-1,-2.935095E-1,1.985041E0,1E-45,-4.1943023E-1,2.5897393E-1,3.107884E-1,8.541735E-1,1.5441123E0,-1.475939E0,1.6863407E0,-6.8546034E-2,-7.409747E-1,-1.208709E-1,-4.1590855E-1,-4.7573793E-1,-1.0630707E0,3.1300515E-1,1.6740094E0,-5.912578E-1,-8.0411446E-1,1.5886041E0,1.116363E0,4.247051E-2,-4.3417707E-1,-1.04908064E-1,-1.3571662E-2,-7.8837526E-1,-4.0266386E-1,2.8441927E-1,-6.848324E-1,2.4358554E-1,-4.889826E-1,5.0588152E-3,3.2614988E-1,-1.3360356E-1,1.1632267E0,-1.1923203E0,-4.1590855E-1,-4.8572013E-1,-8.886214E-1,-1.5914874E0,-1.2138947E-2,-1.5407922E0,-1.5914874E0,1.5441123E0,-1.5242776E0,6.8750966E-1,1.6461499E0,8.5329646E-1,1.5886041E0,-1.2567168E0,1.2657081E0,4.80525E-2,1.1740564E-2,9.168679E-2,3.4745563E-2,1.4006476E-1,2.7709512E-2,-8.677124E-2,1.2037886E-2,-7.12826E-2,1.5005928E-2,6.3270454E-6,6.448767E-2,5.1050898E-2,-1.0291911E-2,-6.112344E-2,-1.4236028E-2,3.0962562E-2,-5.011327E-2,-9.166195E-2,-4.0802713E-2,1.8826352E-2,-7.352889E-2,8.3656214E-2,2.1053918E-2,-2.0010373E-2,-7.1361184E-2,-1.5873743E-2,-8.1677556E-2,-1.4125521E-2,-9.816166E-2,-2.1784019E-2,4.0678594E-2,-7.083435E-2,-1.2976976E-2,-3.651681E-2,-7.870627E-2,2.074132E-2,-3.7797432E-2,-5.844586E-2,-8.1595786E-2,6.5641017E-3,-5.0297167E-2,-1.9820263E-3,8.628714E-2,-5.768354E-2,-9.061667E-3,-7.327241E-2,-1.7368755E-3,-9.119202E-2,-4.0913697E-2],"split_indices":[48,3,3,25,12,2,48,51,7,22,10,6,6,2,2,0,48,1,2,2,2,2,2,3,2,2,2,0,2,0,0,48,2,10,48,8,2,9,8,10,0,2,2,8,24,2,0,2,2,6,0,2,2,2,2,2,2,0,0,0,0,0,0,0,0,0,0,0,0,0,0,0,0,0,0,0,0,0,0,0,0,0,0,0,0,0,0,0,0,0,0,0,0,0,0,0,0,0,0,0,0,0,0,0,0,0,0],"split_type":[0,0,0,0,0,0,0,1,0,0,0,0,0,0,0,0,0,0,0,0,0,0,0,0,0,0,0,0,0,0,0,0,0,0,0,0,0,0,0,0,0,0,0,0,0,0,0,0,0,0,0,0,0,0,0,0,0,0,0,0,0,0,0,0,0,0,0,0,0,0,0,0,0,0,0,0,0,0,0,0,0,0,0,0,0,0,0,0,0,0,0,0,0,0,0,0,0,0,0,0,0,0,0,0,0,0,0],"sum_hessian":[2.863113E3,2.5383037E3,3.2480942E2,2.2063125E3,3.319911E2,2.2194269E2,1.0286672E2,1.0543635E3,1.151949E3,1.5692249E2,1.7506859E2,7.643727E1,1.4550542E2,3.5089417E1,6.7777306E1,6.389175E2,4.154461E2,4.921751E2,6.5977386E2,7.277294E1,8.414954E1,1.331282E2,4.1940376E1,5.0288616E1,2.6148659E1,1.388E2,6.7054105E0,1.0026551E0,3.408676E1,6.657804E1,1.199262E0,3.6557227E2,2.7334518E2,1.7108636E2,2.4435974E2,1.819188E2,3.1025632E2,4.119034E2,2.4787045E2,4.5166218E1,2.7606724E1,1.7814926E1,6.633462E1,8.221938E1,5.090883E1,4.0794342E1,1.1460334E0,1.7872393E1,3.2416225E1,1.7350773E1,8.797885E0,1.2712753E2,1.1672464E1,4.624099E0,2.081312E0,5.1918902E0,2.889487E1,1.1522579E2,2.5034648E2,1.11390625E2,1.6195456E2,4.537757E0,1.6654861E2,4.920905E1,1.951507E2,6.0155384E1,1.2176341E2,1.2993286E2,1.8032344E2,1.225807E2,2.893227E2,1.3337343E2,1.1449704E2,1.4903015E1,3.0263203E1,2.1378775E1,6.227948E0,1.4291202E1,3.5237253E0,1.8540169E1,4.779445E1,5.849542E1,2.3723967E1,1.350821E1,3.740062E1,1.2036271E0,3.9590717E1,1.269975E0,1.6602417E1,1.6297464E0,3.0786478E1,6.869536E0,1.0481236E1,2.0388892E0,6.758996E0,6.772597E1,5.940157E1,4.2015686E0,7.4708953E0,3.5662894E0,1.0578092E0,1.0594784E0,1.0218335E0,1.643661E0,3.5482295E0,2.2430641E1,6.46423E0],"tree_param":{"num_deleted":"0","num_feature":"52","num_nodes":"107","size_leaf_vector":"1"}},{"base_weights":[-4.0054247E-3,6.412933E-2,-5.4996794E-1,1.176878E-1,-2.955866E-1,-2.0224096E-1,-7.01638E-1,1.8206889E-2,2.9302198E-1,-4.1050127E-1,5.1487774E-1,-2.531726E-1,1.0560914E0,-5.687698E-1,-9.4283396E-1,2.0820765E-1,-5.829479E-2,-1.07370794E-1,3.4561682E-1,-5.7700855E-1,3.0486662E-2,6.1507004E-1,-3.148812E-1,-1.3207155E-1,-6.6955096E-1,2.0760112E-1,-6.5893255E-2,-6.9448394E-1,-4.1449985E-1,-9.7257264E-2,-5.4111236E-1,2.7112123E-1,-4.4384074E-1,4.893939E-2,-2.1489695E-1,-4.1849282E-1,2.719497E-1,1.7291364E-1,4.3710217E-1,-4.7806293E-1,-9.1477984E-1,2.621532E-1,-3.388875E-1,1.0689633E0,4.9205422E-1,-9.031295E-2,3.3670314E-2,-6.406131E-1,9.267704E-3,3.5697913E-3,-9.4111395E-1,-7.373516E-2,-2.487915E-1,3.8229793E-1,-4.8466724E-1,-7.458643E-3,-7.027937E-2,-1.6488943E-2,3.744427E-2,-8.137301E-2,8.641317E-2,-3.852113E-3,7.21209E-2,-1.1984597E-2,-6.3575424E-2,-3.3009242E-2,-1.0015831E-1,4.296994E-2,-7.747823E-2,4.071372E-2,-9.66668E-3,1.9870635E-2,6.018358E-2,-8.868714E-3,-6.719258E-2,-9.328679E-2,-6.0777166E-3,-2.5465444E-2,3.6784314E-2,-6.2459033E-2,-2.3250248E-2,3.0814553E-2,1.4314233E-1,-9.163422E-3,6.621897E-2,-3.779797E-2,-8.664834E-2,-4.6878304E-2,1.3688787E-2,3.0387882E-2,-4.578669E-2,-3.9402988E-2,-9.943219E-2,2.10578E-2,-5.291437E-2,-7.406364E-2,1.05667114E-1,-9.578998E-2,-4.178897E-2],"categories":[],"categories_nodes":[],"categories_segments":[],"categories_sizes":[],"default_left":[0,0,0,0,0,0,0,0,0,0,0,0,0,0,0,0,0,0,0,0,0,0,0,0,0,0,0,0,0,0,0,0,0,0,0,0,0,0,0,0,0,0,0,0,0,0,0,0,0,0,0,0,0,0,0,0,0,0,0,0,0,0,0,0,0,0,0,0,0,0,0,0,0,0,0,0,0,0,0,0,0,0,0,0,0,0,0,0,0,0,0,0,0,0,0,0,0,0,0],"id":11,"left_children":[1,3,5,7,9,11,13,15,17,19,21,23,25,27,29,31,33,35,37,39,41,43,45,47,49,-1,-1,51,53,-1,55,57,59,61,63,65,67,69,71,73,75,77,79,81,83,-1,-1,85,87,89,91,-1,93,95,97,-1,-1,-1,-1,-1,-1,-1,-1,-1,-1,-1,-1,-1,-1,-1,-1,-1,-1,-1,-1,-1,-1,-1,-1,-1,-1,-1,-1,-1,-1,-1,-1,-1,-1,-1,-1,-1,-1,-1,-1,-1,-1,-1,-1],"loss_changes":[1.061293E2,4.890298E1,1.6552559E1,3.8516464E1,3.0853106E1,6.5186996E0,6.514229E0,2.0508705E1,1.687133E1,2.1216637E1,3.6271696E0,4.6793275E0,8.343403E0,2.5121841E0,3.8913727E-1,1.673469E1,1.6906261E1,1.1157464E1,1.1092033E1,6.5685654E0,6.941488E0,1.550497E0,2.2631123E0,5.360418E0,3.852728E0,0E0,0E0,1.3081665E0,3.9483566E0,0E0,5.159774E-1,1.6729338E1,1.8128773E1,3.518843E1,1.6289461E1,2.3396797E0,7.395791E0,1.5598705E1,1.8000519E1,1.2337086E1,6.6005325E-1,2.8126209E0,8.062115E-1,1.5105047E0,3.150289E0,0E0,0E0,6.3442755E-1,3.6807382E0,1.1160476E0,4.5095444E-2,0E0,1.1879963E0,5.3311768E0,1.5684748E0,0E0,0E0,0E0,0E0,0E0,0E0,0E0,0E0,0E0,0E0,0E0,0E0,0E0,0E0,0E0,0E0,0E0,0E0,0E0,0E0,0E0,0E0,0E0,0E0,0E0,0E0,0E0,0E0,0E0,0E0,0E0,0E0,0E0,0E0,0E0,0E0,0E0,0E0,0E0,0E0,0E0,0E0,0E0,0E0],"parents":[2147483647,0,0,1,1,2,2,3,3,4,4,5,5,6,6,7,7,8,8,9,9,10,10,11,11,12,12,13,13,14,14,15,15,16,16,17,17,18,18,19,19,20,20,21,21,22,22,23,23,24,24,27,27,28,28,30,30,31,31,32,32,33,33,34,34,35,35,36,36,37,37,38,38,39,39,40,40,41,41,42,42,43,43,44,44,47,47,48,48,49,49,50,50,52,52,53,53,54,54],"right_children":[2,4,6,8,10,12,14,16,18,20,22,24,26,28,30,32,34,36,38,40,42,44,46,48,50,-1,-1,52,54,-1,56,58,60,62,64,66,68,70,72,74,76,78,80,82,84,-1,-1,86,88,90,92,-1,94,96,98,-1,-1,-1,-1,-1,-1,-1,-1,-1,-1,-1,-1,-1,-1,-1,-1,-1,-1,-1,-1,-1,-1,-1,-1,-1,-1,-1,-1,-1,-1,-1,-1,-1,-1,-1,-1,-1,-1,-1,-1,-1,-1,-1,-1],"split_conditions":[8.8219815E-1,1.5046736E0,-4.1590855E-1,5.335399E-1,1.5587159E0,-4.6340668E-1,8.060298E-1,1.2232532E-1,-8.5182154E-1,1.3607965E0,1.2524635E0,8.060298E-1,4.4664502E-1,-7.0781153E-1,1.5886041E0,8.442085E-1,-5.166721E-1,6.668448E-1,-5.691252E-1,-4.6384612E-1,8.498214E-1,-1.399668E0,1.5886041E0,4.4664502E-1,-1.5242776E0,2.0760112E-1,-6.5893255E-2,1.5607446E0,-2.8026482E-1,-9.7257264E-2,1.6461499E0,-2.823427E-1,5.5105467E0,-5.933125E-1,1.1905249E0,2.3034012E-1,-3.318734E-1,6.363994E-2,-5.7575804E-1,-4.1590855E-1,1.574446E0,-9.584834E-1,-1.3348148E0,-1.5407922E0,-1.0233366E0,-9.031295E-2,3.3670314E-2,-7.404221E-1,-1.4384886E0,-1.1667445E0,-1.5270909E0,-7.373516E-2,-5.912578E-1,-3.6155972E-1,-8.570516E-2,-7.458643E-3,-7.027937E-2,-1.6488943E-2,3.744427E-2,-8.137301E-2,8.641317E-2,-3.852113E-3,7.21209E-2,-1.1984597E-2,-6.3575424E-2,-3.3009242E-2,-1.0015831E-1,4.296994E-2,-7.747823E-2,4.071372E-2,-9.66668E-3,1.9870635E-2,6.018358E-2,-8.868714E-3,-6.719258E-2,-9.328679E-2,-6.0777166E-3,-2.5465444E-2,3.6784314E-2,-6.2459033E-2,-2.3250248E-2,3.0814553E-2,1.4314233E-1,-9.163422E-3,6.621897E-2,-3.779797E-2,-8.664834E-2,-4.6878304E-2,1.3688787E-2,3.0387882E-2,-4.578669E-2,-3.9402988E-2,-9.943219E-2,2.10578E-2,-5.291437E-2,-7.406364E-2,1.05667114E-1,-9.578998E-2,-4.178897E-2],"split_indices":[48,3,2,20,20,2,3,44,1,11,2,3,19,44,2,8,48,13,47,8,7,2,2,19,0,0,0,2,2,0,2,8,8,48,13,2,2,2,2,2,2,2,2,2,2,0,0,0,2,2,2,0,3,2,2,0,0,0,0,0,0,0,0,0,0,0,0,0,0,0,0,0,0,0,0,0,0,0,0,0,0,0,0,0,0,0,0,0,0,0,0,0,0,0,0,0,0,0,0],"split_type":[0,0,0,0,0,0,0,0,0,0,0,0,0,0,0,0,0,0,0,0,0,0,0,0,0,0,0,0,0,0,0,0,0,0,0,0,0,0,0,0,0,0,0,0,0,0,0,0,0,0,0,0,0,0,0,0,0,0,0,0,0,0,0,0,0,0,0,0,0,0,0,0,0,0,0,0,0,0,0,0,0,0,0,0,0,0,0,0,0,0,0,0,0,0,0,0,0,0,0],"sum_hessian":[2.851065E3,2.535521E3,3.155441E2,2.2075146E3,3.280063E2,9.654141E1,2.1900269E2,1.4091158E3,7.9839874E2,2.877063E2,4.03E1,9.355358E1,2.9878259E0,1.4337787E2,7.562481E1,4.040039E2,1.005112E3,9.257843E1,7.058203E2,2.0862547E2,7.908082E1,3.6188965E1,4.1110344E0,7.349516E1,2.0058418E1,1.7416102E0,1.2462157E0,7.7071106E1,6.630677E1,6.908925E1,6.5355625E0,3.6898608E2,3.5017815E1,5.970003E2,4.081117E2,5.08047E1,4.177373E1,2.4541798E2,4.6040234E2,1.6322594E2,4.5399544E1,4.8778114E1,3.0302706E1,6.0769844E0,3.0111979E1,1.9576354E0,2.153399E0,1.5215834E1,5.827933E1,6.0497675E0,1.400865E1,6.9711685E1,7.359422E0,5.0064797E0,6.1300293E1,2.0581524E0,4.4774103E0,7.05736E1,2.984125E2,2.7592606E1,7.425209E0,5.291075E2,6.789281E1,3.3396924E2,7.414247E1,4.547629E1,5.328404E0,3.6814953E1,4.95878E0,1.3104765E2,1.1437033E2,1.8903897E2,2.7136337E2,5.473916E1,1.0848677E2,4.4367477E1,1.0320644E0,8.042425E0,4.073569E1,6.9003644E0,2.3402342E1,2.5579329E0,3.5190516E0,6.9003086E0,2.3211672E1,8.271493E0,6.944341E0,1.1716683E1,4.656265E1,3.8715577E0,2.1782098E0,1.9867141E0,1.2021936E1,2.8835227E0,4.475899E0,1.8416284E0,3.1648512E0,5.93019E0,5.5370102E1],"tree_param":{"num_deleted":"0","num_feature":"52","num_nodes":"99","size_leaf_vector":"1"}},{"base_weights":[-1.4643978E-2,5.2635297E-2,-5.699128E-1,1.03427E-1,-3.0094963E-1,-4.3726915E-1,-8.925848E-1,1.0827789E-2,2.65972E-1,-5.9932154E-1,-2.709177E-2,-2.5708297E-1,-6.193326E-2,-6.509123E-1,-1.0125791E-1,-4.6767798E-1,3.4751646E-2,1.2045325E-1,4.3853915E-1,-2.6777905E-1,-7.414059E-1,-3.5245818E-1,2.7328703E-1,-4.4887677E-2,-1.8044269E-1,-7.112242E-2,-4.6580065E-2,-3.430658E-1,-8.762006E-2,7.5899966E-2,-2.593973E-1,-2.0902497E-1,1.8593197E-1,5.779203E-1,2.6555878E-1,-2.0487988E-1,-5.0149377E-2,-5.772322E-2,-8.9078814E-2,-8.72436E-2,-2.362987E-1,1.5987484E-1,4.0260226E-2,-2.7244931E-2,-1.5921555E-1,-5.5514406E-2,-1.866277E-2,3.9534014E-2,3.5619028E-3,-5.9359157E-3,-5.109054E-2,2.8784199E-2,-3.242475E-2,2.2578595E-2,-1.9193305E-2,7.115109E-2,4.0870152E-2,-6.6293366E-2,4.3003276E-2,-2.108173E-2,-5.3759445E-3,-1.9978167E-2,-3.471617E-2,2.3087824E-2,7.408852E-3,-9.790942E-3,-2.2021694E-2],"categories":[1],"categories_nodes":[16],"categories_segments":[0],"categories_sizes":[1],"default_left":[0,0,0,0,0,0,0,0,0,0,0,0,0,0,0,0,1,0,0,0,0,0,0,0,0,0,0,0,0,0,0,0,0,0,0,0,0,0,0,0,0,0,0,0,0,0,0,0,0,0,0,0,0,0,0,0,0,0,0,0,0,0,0,0,0,0,0],"id":12,"left_children":[1,3,5,7,9,11,13,15,17,19,21,23,-1,25,-1,27,29,31,33,35,37,39,41,-1,43,-1,-1,45,-1,47,49,51,53,55,57,59,-1,-1,-1,-1,61,63,-1,-1,65,-1,-1,-1,-1,-1,-1,-1,-1,-1,-1,-1,-1,-1,-1,-1,-1,-1,-1,-1,-1,-1,-1],"loss_changes":[1.0633023E2,4.562675E1,1.2774818E1,3.3422066E1,2.6061787E1,7.0561485E0,1.911644E0,1.6223751E1,2.0185093E1,6.9942513E0,1.6462444E1,1.5690117E0,0E0,2.8337479E-2,0E0,3.1347914E0,1.6351288E1,9.50116E0,8.726616E0,5.936339E-1,2.0932503E0,4.6755123E0,1.2208881E0,0E0,1.1652756E-1,0E0,0E0,1.6665239E0,0E0,1.5227129E1,8.312042E0,4.2831993E0,5.561345E0,4.300827E0,2.5665611E1,2.3674846E-2,0E0,0E0,0E0,0E0,2.0364714E-1,2.773831E-1,0E0,0E0,2.3623085E-1,0E0,0E0,0E0,0E0,0E0,0E0,0E0,0E0,0E0,0E0,0E0,0E0,0E0,0E0,0E0,0E0,0E0,0E0,0E0,0E0,0E0,0E0],"parents":[2147483647,0,0,1,1,2,2,3,3,4,4,5,5,6,6,7,7,8,8,9,9,10,10,11,11,13,13,15,15,16,16,17,17,18,18,19,19,20,20,21,21,22,22,24,24,27,27,29,29,30,30,31,31,32,32,33,33,34,34,35,35,40,40,41,41,44,44],"right_children":[2,4,6,8,10,12,14,16,18,20,22,24,-1,26,-1,28,30,32,34,36,38,40,42,-1,44,-1,-1,46,-1,48,50,52,54,56,58,60,-1,-1,-1,-1,62,64,-1,-1,66,-1,-1,-1,-1,-1,-1,-1,-1,-1,-1,-1,-1,-1,-1,-1,-1,-1,-1,-1,-1,-1,-1],"split_conditions":[8.8219815E-1,1.5046736E0,8.060298E-1,5.335399E-1,7.10841E-1,-9.228439E-1,1.985041E0,-4.7871873E-1,7.10841E-1,-4.4940877E-1,2.5897393E-1,-1.208709E-1,-6.193326E-2,-8.5182154E-1,-1.0125791E-1,3.3601128E-2,1E-45,-8.5182154E-1,-7.019302E-1,9.653328E-1,-5.5009407E-1,-1.1552678E0,-5.2570426E-1,-4.4887677E-2,-7.3012424E-1,-7.112242E-2,-4.6580065E-2,-1.1006533E0,-8.762006E-2,-1.1014243E-1,-5.009298E-3,-1.6411056E-1,7.2623384E-1,1.4260662E0,-4.5383835E-1,2.5093743E-1,-5.0149377E-2,-5.772322E-2,-8.9078814E-2,-8.72436E-2,-5.6264305E-1,1.4260662E0,4.0260226E-2,-2.7244931E-2,1.3410304E0,-5.5514406E-2,-1.866277E-2,3.9534014E-2,3.5619028E-3,-5.9359157E-3,-5.109054E-2,2.8784199E-2,-3.242475E-2,2.2578595E-2,-1.9193305E-2,7.115109E-2,4.0870152E-2,-6.6293366E-2,4.3003276E-2,-2.108173E-2,-5.3759445E-3,-1.9978167E-2,-3.471617E-2,2.3087824E-2,7.408852E-3,-9.790942E-3,-2.2021694E-2],"split_indices":[48,3,3,20,11,16,48,28,11,32,22,1,0,1,0,48,51,1,40,23,8,12,6,0,4,0,0,6,0,8,16,8,40,4,40,11,0,0,0,0,8,4,0,0,1,0,0,0,0,0,0,0,0,0,0,0,0,0,0,0,0,0,0,0,0,0,0],"split_type":[0,0,0,0,0,0,0,0,0,0,0,0,0,0,0,0,1,0,0,0,0,0,0,0,0,0,0,0,0,0,0,0,0,0,0,0,0,0,0,0,0,0,0,0,0,0,0,0,0,0,0,0,0,0,0,0,0,0,0,0,0,0,0,0,0,0,0],"sum_hessian":[2.844441E3,2.5378474E3,3.0659363E2,2.2196997E3,3.1814758E2,2.1894508E2,8.764856E1,1.414786E3,8.0491376E2,1.5169037E2,1.664572E2,1.1125212E2,1.07692955E2,3.1211685E1,5.643688E1,6.64837E1,1.3483024E3,4.3760095E2,3.6731277E2,4.6371296E1,1.0531908E2,7.9821846E1,8.663536E1,3.0376755E1,8.087537E1,2.139784E1,9.813844E0,5.2353897E1,1.4129808E1,1.183487E3,1.6481532E2,7.21851E1,3.6541586E2,2.0211504E2,1.6519775E2,3.801659E1,8.354708E0,5.2492752E1,5.282632E1,1.3386712E1,6.6435135E1,4.7347187E1,3.928817E1,1.2942525E1,6.793284E1,2.114272E1,3.1211176E1,1.3153775E2,1.0519492E3,9.248943E1,7.23259E1,1.330644E1,5.8878654E1,3.3091614E2,3.4499733E1,1.1115697E2,9.095807E1,2.4403563E1,1.407942E2,3.619931E1,1.8172796E0,5.208197E1,1.4353163E1,2.498027E1,2.2366919E1,3.5181065E1,3.2751778E1],"tree_param":{"num_deleted":"0","num_feature":"52","num_nodes":"67","size_leaf_vector":"1"}},{"base_weights":[-1.2090904E-2,4.2822126E-2,-5.096223E-1,1.1733623E-1,-1.583638E-1,-3.4400666E-1,-8.994242E-1,2.8827816E-1,3.652093E-2,2.4323435E-1,-2.5058785E-1,-6.53055E-2,-5.0726205E-1,-6.9002765E-1,-1.0024706E0,4.663289E-1,1.361362E-1,-3.711585E-1,7.81348E-2,-6.256967E-2,4.736664E-1,-7.2179143E-3,-3.846761E-1,1.5167361E-1,-5.400269E-1,-3.8165367E-1,-6.1498594E-1,-7.327936E-2,-7.506585E-1,-1.0200343E-1,-1.3575575E-2,6.05439E-1,1.6666399E-1,2.0248896E-1,-5.677255E-1,-5.2729767E-2,-5.5654234E-1,1.4932045E-1,-2.1893091E-1,8.709699E-2,-4.8489252E-1,6.529664E-1,1.7869428E-1,3.5698554E-1,-2.7033275E-1,-3.3290973E-1,-8.719681E-1,5.421811E-1,-3.193559E-2,-7.7907586E-1,1.2146095E-1,-6.012228E-1,-3.821472E-2,-4.3911943E-1,-7.584058E-1,-3.1276044E-2,2.2925043E-2,-8.0377895E-1,-8.136062E-4,6.4381815E-2,-3.5168916E-2,-2.8388372E-2,4.974341E-2,8.151234E-3,4.367366E-2,-3.441303E-2,-8.9858435E-2,-8.1700884E-2,8.499037E-3,-4.216289E-2,-8.601518E-2,2.0757357E-3,3.267389E-2,-7.11514E-3,-3.9864935E-2,1.1111019E-3,1.346672E-1,-9.326257E-2,-1.3514483E-2,1.17220215E-1,5.0984126E-2,-1.5017151E-2,3.243148E-2,5.245128E-2,-9.855052E-2,-3.8628343E-2,2.8590048E-2,-1.389018E-2,-5.597877E-2,-1.0591205E-2,-9.168721E-2,-7.870758E-2,8.0606095E-2,-1.5778502E-2,8.8188015E-2,-8.066495E-2,-2.9025296E-2,4.3339845E-2,-4.4492174E-2,-3.6447044E-2,-7.563807E-2,1.627991E-1,-2.249021E-2,-2.8173907E-2,-7.215785E-2,-8.537521E-2,-3.3922944E-2,-8.511028E-2,-3.9300855E-2],"categories":[1],"categories_nodes":[16],"categories_segments":[0],"categories_sizes":[1],"default_left":[0,0,0,0,0,0,0,0,0,0,0,0,0,0,0,0,1,0,0,0,0,0,0,0,0,0,0,0,0,0,0,0,0,0,0,0,0,0,0,0,0,0,0,0,0,0,0,0,0,0,0,0,0,0,0,0,0,0,0,0,0,0,0,0,0,0,0,0,0,0,0,0,0,0,0,0,0,0,0,0,0,0,0,0,0,0,0,0,0,0,0,0,0,0,0,0,0,0,0,0,0,0,0,0,0,0,0,0,0],"id":13,"left_children":[1,3,5,7,9,11,13,15,17,19,21,23,25,27,29,31,33,35,37,39,41,43,45,47,49,51,53,55,57,-1,-1,59,61,63,65,67,69,71,73,75,77,79,81,83,85,87,89,91,93,95,97,99,101,103,105,-1,-1,107,-1,-1,-1,-1,-1,-1,-1,-1,-1,-1,-1,-1,-1,-1,-1,-1,-1,-1,-1,-1,-1,-1,-1,-1,-1,-1,-1,-1,-1,-1,-1,-1,-1,-1,-1,-1,-1,-1,-1,-1,-1,-1,-1,-1,-1,-1,-1,-1,-1,-1,-1],"loss_changes":[7.7193375E1,3.81679E1,1.7821236E1,2.5651327E1,2.5550196E1,9.008617E0,1.1018829E0,1.6085472E1,2.144624E1,9.122318E0,1.8277458E1,7.761331E0,1.4589386E0,1.090127E0,6.759453E-1,1.13325E1,1.5194153E1,6.883295E0,2.4273857E1,3.6028585E0,3.7813244E0,1.926349E1,8.820087E0,3.7420285E0,3.827417E0,4.533408E0,1.3252411E0,3.5057753E-1,1.0889616E0,0E0,0E0,7.093292E0,1.3305649E1,8.3467865E0,1.767931E0,4.7210765E0,2.6646633E0,2.109946E1,5.867633E0,4.0469766E0,2.205974E0,2.7809162E0,1.4490025E0,1.9481503E1,7.636606E0,1.4363701E1,1.0746918E0,6.4813924E0,4.311328E0,1.4019012E-3,1.452777E0,1.075778E0,8.028242E0,1.2150965E0,1.102747E0,0E0,0E0,1.691742E-1,0E0,0E0,0E0,0E0,0E0,0E0,0E0,0E0,0E0,0E0,0E0,0E0,0E0,0E0,0E0,0E0,0E0,0E0,0E0,0E0,0E0,0E0,0E0,0E0,0E0,0E0,0E0,0E0,0E0,0E0,0E0,0E0,0E0,0E0,0E0,0E0,0E0,0E0,0E0,0E0,0E0,0E0,0E0,0E0,0E0,0E0,0E0,0E0,0E0,0E0,0E0],"parents":[2147483647,0,0,1,1,2,2,3,3,4,4,5,5,6,6,7,7,8,8,9,9,10,10,11,11,12,12,13,13,14,14,15,15,16,16,17,17,18,18,19,19,20,20,21,21,22,22,23,23,24,24,25,25,26,26,27,27,28,28,31,31,32,32,33,33,34,34,35,35,36,36,37,37,38,38,39,39,40,40,41,41,42,42,43,43,44,44,45,45,46,46,47,47,48,48,49,49,50,50,51,51,52,52,53,53,54,54,57,57],"right_children":[2,4,6,8,10,12,14,16,18,20,22,24,26,28,30,32,34,36,38,40,42,44,46,48,50,52,54,56,58,-1,-1,60,62,64,66,68,70,72,74,76,78,80,82,84,86,88,90,92,94,96,98,100,102,104,106,-1,-1,108,-1,-1,-1,-1,-1,-1,-1,-1,-1,-1,-1,-1,-1,-1,-1,-1,-1,-1,-1,-1,-1,-1,-1,-1,-1,-1,-1,-1,-1,-1,-1,-1,-1,-1,-1,-1,-1,-1,-1,-1,-1,-1,-1,-1,-1,-1,-1,-1,-1,-1,-1],"split_conditions":[9.0923154E-1,8.060298E-1,8.060298E-1,-6.306868E-1,-7.3001283E-1,-2.935095E-1,1.985041E0,1.225559E-1,-2.2027406E-1,-2.5240535E-1,-3.1509623E-1,8.541735E-1,6.8750966E-1,-1.3083254E0,1.6863407E0,6.8721825E-1,1E-45,-1.208709E-1,6.744718E-1,-6.392411E-1,-4.0456074E-1,-4.1590855E-1,5.036713E-1,-1.2297708E0,-7.264733E-1,2.9930377E-1,-9.228439E-1,-1.4384886E0,1.5886041E0,-1.0200343E-1,-1.3575575E-2,1.04933595E-2,-4.506187E-1,-4.8450682E-1,1.1574672E0,-1.1006533E0,6.468622E-1,-5.933125E-1,-4.0266386E-1,-6.7532146E-1,-5.255196E-1,1.0748437E-1,5.198961E-1,9.1622576E-2,-1.963483E-2,-4.1590855E-1,-1.6056455E0,-1.5914874E0,-3.318734E-1,-7.917832E-1,-7.3012424E-1,-3.3639897E-2,3.2807666E-1,1.3945012E0,1.5607446E0,-3.1276044E-2,2.2925043E-2,1.2657081E0,-8.136062E-4,6.4381815E-2,-3.5168916E-2,-2.8388372E-2,4.974341E-2,8.151234E-3,4.367366E-2,-3.441303E-2,-8.9858435E-2,-8.1700884E-2,8.499037E-3,-4.216289E-2,-8.601518E-2,2.0757357E-3,3.267389E-2,-7.11514E-3,-3.9864935E-2,1.1111019E-3,1.346672E-1,-9.326257E-2,-1.3514483E-2,1.17220215E-1,5.0984126E-2,-1.5017151E-2,3.243148E-2,5.245128E-2,-9.855052E-2,-3.8628343E-2,2.8590048E-2,-1.389018E-2,-5.597877E-2,-1.0591205E-2,-9.168721E-2,-7.870758E-2,8.0606095E-2,-1.5778502E-2,8.8188015E-2,-8.066495E-2,-2.9025296E-2,4.3339845E-2,-4.4492174E-2,-3.6447044E-2,-7.563807E-2,1.627991E-1,-2.249021E-2,-2.8173907E-2,-7.215785E-2,-8.537521E-2,-3.3922944E-2,-8.511028E-2,-3.9300855E-2],"split_indices":[48,3,3,18,48,2,48,2,17,2,18,6,2,2,2,23,51,1,40,2,36,2,8,2,2,2,16,2,2,0,0,48,2,21,2,6,2,48,2,2,2,2,2,9,25,2,2,2,2,2,4,2,2,2,2,0,0,2,0,0,0,0,0,0,0,0,0,0,0,0,0,0,0,0,0,0,0,0,0,0,0,0,0,0,0,0,0,0,0,0,0,0,0,0,0,0,0,0,0,0,0,0,0,0,0,0,0,0,0],"split_type":[0,0,0,0,0,0,0,0,0,0,0,0,0,0,0,0,1,0,0,0,0,0,0,0,0,0,0,0,0,0,0,0,0,0,0,0,0,0,0,0,0,0,0,0,0,0,0,0,0,0,0,0,0,0,0,0,0,0,0,0,0,0,0,0,0,0,0,0,0,0,0,0,0,0,0,0,0,0,0,0,0,0,0,0,0,0,0,0,0,0,0,0,0,0,0,0,0,0,0,0,0,0,0,0,0,0,0,0,0],"sum_hessian":[2.8236284E3,2.5437825E3,2.7984586E2,1.8565725E3,6.8721E2,1.9772198E2,8.212388E1,5.951448E2,1.2614277E3,1.2803453E2,5.5917554E2,7.355416E1,1.2416782E2,2.962347E1,5.2500404E1,2.732717E2,3.2187308E2,1.1610086E2,1.1453269E3,5.5332195E1,7.270233E1,1.9901584E2,3.6015967E2,5.0948036E1,2.2606127E1,5.9422615E1,6.474521E1,2.8492272E0,2.6774242E1,5.128425E1,1.216157E0,1.8593619E2,8.73355E1,2.9479517E2,2.7077904E1,4.3193314E1,7.2907555E1,9.243281E2,2.2099876E2,4.1440056E1,1.3892141E1,4.4462166E1,2.8240164E1,8.332317E1,1.1569267E2,3.270947E2,3.306497E1,1.5669213E1,3.5278824E1,1.6474718E1,6.1314087E0,3.5790348E1,2.3632269E1,3.090733E1,3.3837883E1,1.5714546E0,1.2777725E0,2.4909693E1,1.8645496E0,1.7908264E2,6.8535533E0,3.70334E1,5.0302097E1,1.9528743E2,9.9507744E1,1.7375566E1,9.702338E0,5.8418007E0,3.7351513E1,5.2131058E1,2.0776493E1,5.3660443E2,3.877237E2,1.2204173E2,9.895702E1,4.003377E1,1.4062829E0,5.361717E0,8.530424E0,8.053884E0,3.6408283E1,8.657353E0,1.958281E1,7.462068E1,8.702492E0,9.598869E1,1.9703978E1,1.7718901E2,1.4990569E2,2.0168264E0,3.1048141E1,2.2669702E0,1.3402244E1,3.1735577E1,3.5432458E0,1.4979562E1,1.4951556E0,4.1052322E0,2.026177E0,1.54953375E1,2.029501E1,1.6031916E0,2.2029078E1,2.1131014E1,9.776314E0,2.6722755E1,7.115126E0,2.1375147E1,3.5345461E0],"tree_param":{"num_deleted":"0","num_feature":"52","num_nodes":"109","size_leaf_vector":"1"}},{"base_weights":[-6.073581E-3,4.549031E-2,-4.6738768E-1,1.5327616E-1,-5.568982E-2,-6.0480468E-2,-6.5582806E-1,1.7510717E-1,-6.336646E-1,1.9704953E-2,-2.427773E-1,-8.8843845E-2,1.3469757E-3,-9.3661034E-1,-6.073333E-1,-1.3507217E-1,2.1320277E-1,1.0033474E0,-8.9741486E-1,-5.999724E-1,4.7883555E-2,5.0518144E-2,-3.5628805E-1,-6.5068555E-1,7.3088266E-2,-9.7038604E-2,-6.9953017E-3,-6.291472E-1,-3.3809236E-1,3.8499918E-2,-4.6987674E-1,3.7130058E-1,1.2366613E-1,3.8035724E-1,1.657124E-1,-9.2248917E-1,-1.4259728E-2,-7.962487E-1,-3.5546818E-1,4.4595787E-1,1.2503155E-2,-6.341134E-1,1.5631713E-1,-1.17645934E-1,-7.384359E-1,-1.4286645E-2,-8.028584E-1,1.3454689E-1,-6.338146E-1,-5.911916E-1,-9.9330544E-2,6.699168E-2,-4.8743868E-1,-1.4844413E-2,5.155754E-2,-1.3610892E-2,-9.004895E-2,-1.08933866E-1,4.4290643E-2,-1.9845447E-2,2.2968354E-2,1.09083496E-1,-6.539154E-2,-4.5138877E-2,-9.763406E-2,-8.476405E-2,-1.5559638E-2,-7.300743E-2,8.2935125E-4,-4.5442253E-2,6.721477E-2,8.613489E-3,-1.7737553E-2,6.03019E-2,-9.096558E-2,1.2691425E-1,1.0844561E-2,1.1565812E-2,-3.7467416E-2,-8.147986E-2,-3.1794157E-2,-9.089141E-2,-2.172059E-2,9.193628E-3,1.4060299E-1,-9.160413E-3,-7.25737E-2,-6.119457E-2,4.7523465E-2,-1.8701015E-2,-5.75185E-2],"categories":[],"categories_nodes":[],"categories_segments":[],"categories_sizes":[],"default_left":[0,0,0,0,0,0,0,0,0,0,0,0,0,0,0,0,0,0,0,0,0,0,0,0,0,0,0,0,0,0,0,0,0,0,0,0,0,0,0,0,0,0,0,0,0,0,0,0,0,0,0,0,0,0,0,0,0,0,0,0,0,0,0,0,0,0,0,0,0,0,0,0,0,0,0,0,0,0,0,0,0,0,0,0,0,0,0,0,0,0,0],"id":14,"left_children":[1,3,5,7,9,11,13,15,17,19,21,-1,23,25,27,29,31,33,35,37,39,41,43,45,47,-1,-1,49,51,53,55,57,59,61,-1,63,-1,65,67,69,71,73,75,77,79,-1,81,83,85,87,-1,-1,89,-1,-1,-1,-1,-1,-1,-1,-1,-1,-1,-1,-1,-1,-1,-1,-1,-1,-1,-1,-1,-1,-1,-1,-1,-1,-1,-1,-1,-1,-1,-1,-1,-1,-1,-1,-1,-1,-1],"loss_changes":[6.689892E1,2.7597464E1,2.164116E1,2.1158798E1,1.8420727E1,4.6390004E0,2.0612411E0,1.4124313E1,1.5272456E1,1.6294304E1,1.250559E1,0E0,4.0377855E0,7.108288E-1,7.7134323E-1,7.636249E0,1.4998287E1,1.4432611E0,4.2103195E-1,1.6648779E0,1.2556157E1,7.7435184E0,2.4586693E1,5.4649115E-1,3.4629664E0,0E0,0E0,1.5390053E0,2.5424032E0,7.8588343E0,6.321183E0,4.0620743E1,2.3268219E1,3.5826719E0,0E0,2.715206E-1,0E0,5.828638E-1,2.7151563E0,1.5126138E1,1.148174E1,5.431296E0,4.774804E0,1.0101852E1,3.0744743E0,0E0,1.9804144E-1,3.7906737E0,2.521913E-1,3.4288406E0,0E0,0E0,2.4564242E-1,0E0,0E0,0E0,0E0,0E0,0E0,0E0,0E0,0E0,0E0,0E0,0E0,0E0,0E0,0E0,0E0,0E0,0E0,0E0,0E0,0E0,0E0,0E0,0E0,0E0,0E0,0E0,0E0,0E0,0E0,0E0,0E0,0E0,0E0,0E0,0E0,0E0,0E0],"parents":[2147483647,0,0,1,1,2,2,3,3,4,4,5,5,6,6,7,7,8,8,9,9,10,10,12,12,13,13,14,14,15,15,16,16,17,17,18,18,19,19,20,20,21,21,22,22,23,23,24,24,27,27,28,28,29,29,30,30,31,31,32,32,33,33,35,35,37,37,38,38,39,39,40,40,41,41,42,42,43,43,44,44,46,46,47,47,48,48,49,49,52,52],"right_children":[2,4,6,8,10,12,14,16,18,20,22,-1,24,26,28,30,32,34,36,38,40,42,44,46,48,-1,-1,50,52,54,56,58,60,62,-1,64,-1,66,68,70,72,74,76,78,80,-1,82,84,86,88,-1,-1,90,-1,-1,-1,-1,-1,-1,-1,-1,-1,-1,-1,-1,-1,-1,-1,-1,-1,-1,-1,-1,-1,-1,-1,-1,-1,-1,-1,-1,-1,-1,-1,-1,-1,-1,-1,-1,-1,-1],"split_conditions":[8.8219815E-1,1.4692074E-1,-4.1590855E-1,1.330315E0,6.744718E-1,-1.1926405E0,-1.1926405E0,-4.801343E-1,-3.318734E-1,-1.6056455E0,-3.3584416E-1,-8.8843845E-2,-1.5526668E0,1.6740094E0,1.5886041E0,-4.1590855E-1,-7.2159183E-1,-4.889826E-1,1.7014122E0,1.4953925E-1,-2.9052782E-1,-1.2955375E0,-4.0266386E-1,-1.1883395E0,-7.404221E-1,-9.7038604E-2,-6.9953017E-3,1.3945012E0,1.601392E0,-8.974791E-2,-4.8478466E-1,-1.9185727E0,-6.8138206E-1,-1.0498259E0,1.657124E-1,-4.4601005E-2,-1.4259728E-2,-2.820482E-1,-1.6581675E0,-7.264733E-1,-5.166721E-1,-6.676027E-1,-1.2297708E0,7.148084E-1,3.0286527E-1,-1.4286645E-2,-1.5914874E0,-4.506187E-1,-1.3348148E0,1.3666416E0,-9.9330544E-2,6.699168E-2,1.6461499E0,-1.4844413E-2,5.155754E-2,-1.3610892E-2,-9.004895E-2,-1.08933866E-1,4.4290643E-2,-1.9845447E-2,2.2968354E-2,1.09083496E-1,-6.539154E-2,-4.5138877E-2,-9.763406E-2,-8.476405E-2,-1.5559638E-2,-7.300743E-2,8.2935125E-4,-4.5442253E-2,6.721477E-2,8.613489E-3,-1.7737553E-2,6.03019E-2,-9.096558E-2,1.2691425E-1,1.0844561E-2,1.1565812E-2,-3.7467416E-2,-8.147986E-2,-3.1794157E-2,-9.089141E-2,-2.172059E-2,9.193628E-3,1.4060299E-1,-9.160413E-3,-7.25737E-2,-6.119457E-2,4.7523465E-2,-1.8701015E-2,-5.75185E-2],"split_indices":[48,25,2,40,40,8,8,29,2,2,17,0,2,2,2,2,40,2,2,20,8,2,2,0,0,0,0,2,2,8,10,19,48,2,0,2,0,48,2,2,48,48,2,24,48,0,2,2,2,2,0,0,2,0,0,0,0,0,0,0,0,0,0,0,0,0,0,0,0,0,0,0,0,0,0,0,0,0,0,0,0,0,0,0,0,0,0,0,0,0,0],"split_type":[0,0,0,0,0,0,0,0,0,0,0,0,0,0,0,0,0,0,0,0,0,0,0,0,0,0,0,0,0,0,0,0,0,0,0,0,0,0,0,0,0,0,0,0,0,0,0,0,0,0,0,0,0,0,0,0,0,0,0,0,0,0,0,0,0,0,0,0,0,0,0,0,0,0,0,0,0,0,0,0,0,0,0,0,0,0,0,0,0,0,0],"sum_hessian":[2.8105037E3,2.5287512E3,2.8175256E2,1.2241575E3,1.3045938E3,8.959887E1,1.9215369E2,1.1918706E3,3.2286915E1,9.3050305E2,3.7409067E2,5.2968483E0,8.4302025E1,2.5602533E1,1.6655115E2,1.3009277E2,1.0617778E3,4.0910354E0,2.819588E1,3.958979E1,8.9091327E2,1.04537E2,2.6955365E2,7.5562162E0,7.6745804E1,2.452697E1,1.0755622E0,1.5283199E2,1.3719168E1,8.62588E1,4.3833977E1,3.827668E2,6.79011E2,2.904804E0,1.1862315E0,2.707436E1,1.1215198E0,2.070901E1,1.888078E1,7.177287E1,8.191404E2,1.3323872E1,9.121313E1,1.667378E2,1.02815865E2,2.1892548E0,5.3669615E0,7.135207E1,5.3937325E0,1.4078198E2,1.205E1,1.3205426E0,1.2398625E1,6.246893E1,2.3789867E1,2.5435225E1,1.8398754E1,1.722348E1,3.6554333E2,1.6792377E2,5.1108722E2,1.6895237E0,1.2152803E0,3.7398324E0,2.3334528E1,1.8872044E1,1.836965E0,8.805628E0,1.0075152E1,1.4207781E1,5.7565094E1,5.906447E2,2.2849565E2,2.2105315E0,1.111334E1,2.7097857E0,8.850334E1,8.769092E1,7.9046875E1,8.622035E1,1.6595512E1,4.0767374E0,1.2902241E0,7.007596E1,1.276116E0,1.0712762E0,4.3224564E0,1.3851251E2,2.2694705E0,3.5105054E0,8.88812E0],"tree_param":{"num_deleted":"0","num_feature":"52","num_nodes":"91","size_leaf_vector":"1"}},{"base_weights":[5.971095E-3,-4.614817E-1,4.5444235E-2,-2.808207E-1,-9.079474E-1,8.677584E-2,-2.5425085E-1,1.4806479E-1,-4.8520905E-1,-2.4594186E-2,-9.204092E-1,1.5386955E-1,4.044292E-3,-3.4657353E-1,3.1420198E-1,-7.601325E-2,2.035613E-1,-5.580716E-1,-2.4491943E-1,-9.3328886E-2,-2.7951965E-2,2.12234E-1,-4.112955E-2,5.2352108E-2,-2.9495323E-1,-5.782148E-1,-1.7152587E-1,3.7589645E-1,-2.593172E-1,6.807414E-1,1.0078567E-2,-4.3802994E-1,-7.583683E-1,8.673059E-1,-4.049612E-1,2.2978967E-2,2.676522E-1,-1.6067104E-1,2.4806814E-1,-6.3872284E-1,8.011258E-2,-5.1706356E-1,-1.008986E-1,-3.556807E-1,-9.145904E-1,3.455944E-2,-3.8584265E-1,3.1252158E-1,1.0524084E-1,-8.7193005E-2,4.1660484E-2,4.7303583E-2,1.5846571E-1,-4.8207693E-2,2.0762464E-2,-4.8143666E-2,7.985191E-2,-4.3955278E-2,-8.7304644E-2,2.7593521E-2,1.06540754E-1,2.7419665E-4,-5.2850336E-2,-2.4435753E-2,3.2390103E-2,3.3761453E-2,1.1151281E-2,-2.6901701E-2,5.2215256E-2,-9.824211E-2,2.999104E-2,-9.84464E-2,-3.487847E-2,1.444064E-3,4.1636053E-2,-6.035453E-2,-1.2466069E-2,-6.6186085E-2,2.1642959E-3,-9.019848E-2,-3.1082978E-2,-2.95591E-2,-9.5011376E-2,-1.699662E-2,8.5557155E-2,-7.104796E-2,2.8848791E-2,3.9252784E-2,-5.0735798E-2],"categories":[],"categories_nodes":[],"categories_segments":[],"categories_sizes":[],"default_left":[0,0,0,0,0,0,0,0,0,0,0,0,0,0,0,0,0,0,0,0,0,0,0,0,0,0,0,0,0,0,0,0,0,0,0,0,0,0,0,0,0,0,0,0,0,0,0,0,0,0,0,0,0,0,0,0,0,0,0,0,0,0,0,0,0,0,0,0,0,0,0,0,0,0,0,0,0,0,0,0,0,0,0,0,0,0,0,0,0],"id":15,"left_children":[1,3,5,7,9,11,13,15,17,-1,19,21,23,25,27,-1,29,31,33,-1,-1,35,37,39,41,43,45,47,49,51,53,55,57,59,61,63,65,67,69,71,73,75,77,79,81,83,85,87,-1,-1,-1,-1,-1,-1,-1,-1,-1,-1,-1,-1,-1,-1,-1,-1,-1,-1,-1,-1,-1,-1,-1,-1,-1,-1,-1,-1,-1,-1,-1,-1,-1,-1,-1,-1,-1,-1,-1,-1,-1],"loss_changes":[5.1463467E1,1.7262508E1,3.1878084E1,1.3752192E1,2.8608322E-1,1.2548611E1,1.6480097E1,2.7320442E0,1.7179108E0,0E0,2.3937988E-1,1.4216368E1,1.4653592E1,1.0801655E1,1.6581845E0,0E0,4.51521E0,1.6033211E0,5.055612E0,0E0,0E0,1.0072498E1,1.00104685E1,1.6805681E1,6.030077E0,8.30481E0,6.839205E0,1.3960528E0,2.3822174E0,1.9005151E0,3.5869176E0,3.2131128E0,6.691456E-1,1.3278079E-1,1.1995118E0,1.7676939E1,8.081032E0,1.5281933E1,5.70046E0,3.0487165E0,1.8553835E1,2.1495228E0,5.2768917E0,1.4598684E0,7.145386E-1,1.3529032E1,1.6807663E1,2.7055206E0,0E0,0E0,0E0,0E0,0E0,0E0,0E0,0E0,0E0,0E0,0E0,0E0,0E0,0E0,0E0,0E0,0E0,0E0,0E0,0E0,0E0,0E0,0E0,0E0,0E0,0E0,0E0,0E0,0E0,0E0,0E0,0E0,0E0,0E0,0E0,0E0,0E0,0E0,0E0,0E0,0E0],"parents":[2147483647,0,0,1,1,2,2,3,3,4,4,5,5,6,6,7,7,8,8,10,10,11,11,12,12,13,13,14,14,16,16,17,17,18,18,21,21,22,22,23,23,24,24,25,25,26,26,27,27,28,28,29,29,30,30,31,31,32,32,33,33,34,34,35,35,36,36,37,37,38,38,39,39,40,40,41,41,42,42,43,43,44,44,45,45,46,46,47,47],"right_children":[2,4,6,8,10,12,14,16,18,-1,20,22,24,26,28,-1,30,32,34,-1,-1,36,38,40,42,44,46,48,50,52,54,56,58,60,62,64,66,68,70,72,74,76,78,80,82,84,86,88,-1,-1,-1,-1,-1,-1,-1,-1,-1,-1,-1,-1,-1,-1,-1,-1,-1,-1,-1,-1,-1,-1,-1,-1,-1,-1,-1,-1,-1,-1,-1,-1,-1,-1,-1,-1,-1,-1,-1,-1,-1],"split_conditions":[-7.3245394E-1,8.060298E-1,1.5046736E0,-2.935095E-1,-1.5270909E0,-5.022979E-1,1.5587159E0,-1.5914874E0,1.2524635E0,-2.4594186E-2,1.6863407E0,7.2216105E-1,1.3141327E0,5.6210876E-1,1.2524635E0,-7.601325E-2,-1.2297708E0,6.8750966E-1,1.2917408E0,-9.3328886E-2,-2.7951965E-2,-4.8941115E-1,7.715808E-1,-4.135599E-1,3.6212453E-1,-5.4056865E-1,-4.1590855E-1,9.903103E-1,1.5886041E0,-1.2567168E0,-8.835825E-1,6.751784E-1,-1.208709E-1,-8.5240144E-1,1.3945012E0,-7.2159183E-1,-7.2159183E-1,-7.188944E-1,-1.6325916E0,-4.3417707E-1,8.503201E-1,-5.1318836E-1,-1.281836E0,-1.347146E0,-1.6056455E0,1.4991648E0,9.0307796E-1,7.308974E-1,1.0524084E-1,-8.7193005E-2,4.1660484E-2,4.7303583E-2,1.5846571E-1,-4.8207693E-2,2.0762464E-2,-4.8143666E-2,7.985191E-2,-4.3955278E-2,-8.7304644E-2,2.7593521E-2,1.06540754E-1,2.7419665E-4,-5.2850336E-2,-2.4435753E-2,3.2390103E-2,3.3761453E-2,1.1151281E-2,-2.6901701E-2,5.2215256E-2,-9.824211E-2,2.999104E-2,-9.84464E-2,-3.487847E-2,1.444064E-3,4.1636053E-2,-6.035453E-2,-1.2466069E-2,-6.6186085E-2,2.1642959E-3,-9.019848E-2,-3.1082978E-2,-2.95591E-2,-9.5011376E-2,-1.699662E-2,8.5557155E-2,-7.104796E-2,2.8848791E-2,3.9252784E-2,-5.0735798E-2],"split_indices":[9,3,3,2,2,40,20,2,2,0,2,12,6,13,2,0,2,2,2,0,0,20,13,40,16,30,2,2,2,2,2,2,1,0,2,40,40,40,2,2,44,2,2,2,2,0,20,2,0,0,0,0,0,0,0,0,0,0,0,0,0,0,0,0,0,0,0,0,0,0,0,0,0,0,0,0,0,0,0,0,0,0,0,0,0,0,0,0,0],"split_type":[0,0,0,0,0,0,0,0,0,0,0,0,0,0,0,0,0,0,0,0,0,0,0,0,0,0,0,0,0,0,0,0,0,0,0,0,0,0,0,0,0,0,0,0,0,0,0,0,0,0,0,0,0,0,0,0,0,0,0,0,0,0,0,0,0,0,0,0,0,0,0,0,0,0,0,0,0,0,0,0,0,0,0,0,0,0,0,0,0],"sum_hessian":[2.7869348E3,2.1617963E2,2.5707551E3,1.550629E2,6.1116734E1,2.2598103E3,3.1094495E2,5.01353E1,1.0492759E2,1.5123444E0,5.960439E1,1.2473628E3,1.0124474E3,2.6783594E2,4.3109028E1,2.1559734E0,4.797933E1,7.949882E1,2.542877E1,5.79829E1,1.62149E0,9.5995416E2,2.8740866E2,8.72333E2,1.401144E2,1.1429099E2,1.5354494E2,3.923322E1,3.8758075E0,1.31152525E1,3.4864075E1,5.170058E1,2.7798243E1,2.6428418E0,2.2785929E1,2.1774892E2,7.4220526E2,2.0366643E2,8.374223E1,3.283841E1,8.3949457E2,6.455814E1,7.5556244E1,7.00234E1,4.426759E1,7.8703255E1,7.4841675E1,3.7209442E1,2.0237787E0,1.8810011E0,1.9948064E0,1.1903366E1,1.2118871E0,9.573315E0,2.529076E1,5.0537228E1,1.1633508E0,8.632375E0,1.9165867E1,1.2636138E0,1.379228E0,5.526304E0,1.7259624E1,1.1540876E2,1.0234016E2,5.1174326E2,2.3046199E2,1.7629855E2,2.7367874E1,2.659849E0,8.108239E1,1.3885273E1,1.8953136E1,7.031974E2,1.3629718E2,5.2458687E1,1.2099456E1,1.2757005E1,6.279924E1,3.862743E0,6.616066E1,2.9084525E0,4.135914E1,6.3642094E1,1.5061161E1,5.0484005E1,2.4357672E1,3.4376152E1,2.83329E0],"tree_param":{"num_deleted":"0","num_feature":"52","num_nodes":"89","size_leaf_vector":"1"}},{"base_weights":[-1.3820049E-2,-2.1238495E-1,5.6254108E-2,-5.9839183E-1,-1.4721078E-1,2.0148191E-1,-9.399004E-3,-1.4864911E-2,-7.1279347E-1,-9.303478E-2,-1.2494728E-1,3.0821964E-1,3.8108163E-2,9.915766E-3,-6.9577515E-1,-6.0305316E-2,-9.272893E-2,-7.642309E-2,-1.0581212E-1,5.570744E-1,2.2934957E-1,2.1698847E-1,-4.4345808E-1,-2.774645E-1,3.7065472E-2,-7.9603195E-2,-4.5153037E-2,-3.1270108E-1,-5.4642186E-2,-4.5408618E-2,5.991779E-1,3.5795328E-1,1.0276662E-1,4.6180375E-2,3.6921978E-1,-2.3082225E-1,-7.1485914E-2,-5.240035E-1,2.1324973E-1,5.5915225E-2,2.2969116E-2,-1.4441783E-2,-5.6486655E-2,9.589519E-3,-1.1091451E-2,5.1351853E-2,1.0581323E-1,3.879095E-2,-4.4086087E-2,-1.0565714E-1,2.2730034E-2,7.3544495E-3,-7.267662E-2,4.1740693E-2,3.2964464E-2,-2.6836885E-2,2.576383E-2,-7.085101E-2,-2.6881883E-2,4.1335914E-2,-2.5283927E-2,9.714382E-3,-1.2026387E-2],"categories":[],"categories_nodes":[],"categories_segments":[],"categories_sizes":[],"default_left":[0,0,0,0,0,0,0,0,0,0,0,0,0,0,0,0,0,0,0,0,0,0,0,0,0,0,0,0,0,0,0,0,0,0,0,0,0,0,0,0,0,0,0,0,0,0,0,0,0,0,0,0,0,0,0,0,0,0,0,0,0,0,0],"id":16,"left_children":[1,3,5,7,9,11,13,-1,15,-1,17,19,21,23,25,-1,-1,-1,27,29,31,33,35,37,39,-1,-1,41,43,-1,45,47,49,51,53,55,-1,57,59,-1,61,-1,-1,-1,-1,-1,-1,-1,-1,-1,-1,-1,-1,-1,-1,-1,-1,-1,-1,-1,-1,-1,-1],"loss_changes":[3.8579094E1,1.8106503E1,1.9543633E1,5.25243E0,1.0695025E1,1.1115986E1,1.8731655E1,0E0,1.3889236E0,0E0,7.3088684E0,7.444832E0,2.1916527E1,1.0736481E1,5.8753777E-1,0E0,0E0,0E0,6.2045546E0,4.195299E0,4.7601604E0,4.80297E0,3.813223E0,1.448225E1,9.237825E0,0E0,0E0,4.85454E0,4.0121646E0,0E0,2.9515896E0,3.6590977E0,2.1882862E1,1.9252584E0,4.9046516E-2,8.0511117E-1,0E0,3.5456734E0,3.8755903E0,0E0,1.302601E1,0E0,0E0,0E0,0E0,0E0,0E0,0E0,0E0,0E0,0E0,0E0,0E0,0E0,0E0,0E0,0E0,0E0,0E0,0E0,0E0,0E0,0E0],"parents":[2147483647,0,0,1,1,2,2,3,3,4,4,5,5,6,6,8,8,10,10,11,11,12,12,13,13,14,14,18,18,19,19,20,20,21,21,22,22,23,23,24,24,27,27,28,28,30,30,31,31,32,32,33,33,34,34,35,35,37,37,38,38,40,40],"right_children":[2,4,6,8,10,12,14,-1,16,-1,18,20,22,24,26,-1,-1,-1,28,30,32,34,36,38,40,-1,-1,42,44,-1,46,48,50,52,54,56,-1,58,60,-1,62,-1,-1,-1,-1,-1,-1,-1,-1,-1,-1,-1,-1,-1,-1,-1,-1,-1,-1,-1,-1,-1,-1],"split_conditions":[-4.6318084E-1,-1.1606973E0,-6.306868E-1,-5.912578E-1,-8.5182154E-1,-3.5823542E-1,1.5046736E0,-1.4864911E-2,1.5046736E0,-9.303478E-2,-1.315265E0,-3.3759752E-1,4.680048E-1,-1.3003188E0,-4.0448406E-1,-6.0305316E-2,-9.272893E-2,-7.642309E-2,-1.0825322E0,-8.5182154E-1,-1.208709E-1,-7.8474724E-1,1.5541266E-1,